{"learner":{"attributes":{"scikit_learn":"{\"_estimator_type\": \"regressor\"}"},"feature_names":[],"feature_types":[],"gradient_booster":{"model":{"gbtree_model_param":{"num_parallel_tree":"1","num_trees":"100"},"iteration_indptr":[0,1,2,3,4,5,6,7,8,9,10,11,12,13,14,15,16,17,18,19,20,21,22,23,24,25,26,27,28,29,30,31,32,33,34,35,36,37,38,39,40,41,42,43,44,45,46,47,48,49,50,51,52,53,54,55,56,57,58,59,60,61,62,63,64,65,66,67,68,69,70,71,72,73,74,75,76,77,78,79,80,81,82,83,84,85,86,87,88,89,90,91,92,93,94,95,96,97,98,99,100],"tree_info":[0,0,0,0,0,0,0,0,0,0,0,0,0,0,0,0,0,0,0,0,0,0,0,0,0,0,0,0,0,0,0,0,0,0,0,0,0,0,0,0,0,0,0,0,0,0,0,0,0,0,0,0,0,0,0,0,0,0,0,0,0,0,0,0,0,0,0,0,0,0,0,0,0,0,0,0,0,0,0,0,0,0,0,0,0,0,0,0,0,0,0,0,0,0,0,0,0,0,0,0],"trees":[{"base_weights":[-4.2044185E-4,3.1206502E4,-1.5790019E4,2.4379215E4,7.577756E4,-6.4950723E3,-2.6460629E4,4.474809E4,1.9048062E4,6.1149336E4,1.1185591E5,-1.258215E4,1.7597493E2,-2.9368385E4,-1.5251001E4,2.4134271E4,4.856243E4,2.3984488E4,1.116364E4,6.923492E4,2.7600234E4,1.373982E5,9.533393E4,-1.3095746E4,4.5410562E4,-3.6618684E3,5.900756E3,-2.5106115E4,-3.1134887E4,-1.9692125E4,-5.6345034E3,4.6389923E2,9.94036E2,1.3155303E3,1.6900962E3,5.369984E2,9.484059E2,2.1134785E3,3.1632397E2,1.0570349E4,2.0606172E3,5.509648E2,9.8088306E2,2.808467E3,4.3852935E3,9.105249E3,2.8190723E3,-1.602464E2,-4.946606E2,5.1479062E3,1.1632396E3,-1.1701899E2,1.6838757E3,-6.1405148E1,3.0373297E2,-7.653883E2,2.4262585E3,-9.832211E2,-8.242862E2,-6.0405145E2,-2.9296918E2,-1.8145819E2,1.2627852E3],"categories":[],"categories_nodes":[],"categories_segments":[],"categories_sizes":[],"default_left":[0,0,0,0,0,0,0,0,0,0,0,0,0,0,0,0,0,0,0,0,0,0,0,0,0,0,0,0,0,0,0,0,0,0,0,0,0,0,0,0,0,0,0,0,0,0,0,0,0,0,0,0,0,0,0,0,0,0,0,0,0,0,0],"id":0,"left_children":[1,3,5,7,9,11,13,15,17,19,21,23,25,27,29,31,33,35,37,39,41,43,45,47,49,51,53,55,57,59,61,-1,-1,-1,-1,-1,-1,-1,-1,-1,-1,-1,-1,-1,-1,-1,-1,-1,-1,-1,-1,-1,-1,-1,-1,-1,-1,-1,-1,-1,-1,-1,-1],"loss_changes":[6.224384E13,1.2912924E13,8.319079E12,3.9957855E12,2.968158E12,1.8204224E12,1.2723505E12,5.9907454E11,1.1351318E12,1.08667077E12,6.726678E11,6.98781E11,4.699773E11,2.3266224E11,3.4347536E11,9.266856E10,2.3344447E11,8.3214887E11,4.118581E11,4.770832E11,3.6152672E10,2.3075068E11,2.5276554E11,6.112409E11,1.6584268E11,1.830373E11,2.8820256E11,3.9399037E11,1.3053303E11,2.3998366E10,5.051451E10,0E0,0E0,0E0,0E0,0E0,0E0,0E0,0E0,0E0,0E0,0E0,0E0,0E0,0E0,0E0,0E0,0E0,0E0,0E0,0E0,0E0,0E0,0E0,0E0,0E0,0E0,0E0,0E0,0E0,0E0,0E0,0E0],"parents":[2147483647,0,0,1,1,2,2,3,3,4,4,5,5,6,6,7,7,8,8,9,9,10,10,11,11,12,12,13,13,14,14,15,15,16,16,17,17,18,18,19,19,20,20,21,21,22,22,23,23,24,24,25,25,26,26,27,27,28,28,29,29,30,30],"right_children":[2,4,6,8,10,12,14,16,18,20,22,24,26,28,30,32,34,36,38,40,42,44,46,48,50,52,54,56,58,60,62,-1,-1,-1,-1,-1,-1,-1,-1,-1,-1,-1,-1,-1,-1,-1,-1,-1,-1,-1,-1,-1,-1,-1,-1,-1,-1,-1,-1,-1,-1,-1,-1],"split_conditions":[-4.1848943E-1,7.0803266E4,5.7721555E-1,-1.5326077E0,1.1675101E5,3.6200732E-1,-1.2413515E-2,3.480109E4,-7.781272E-1,-7.5622016E-1,-1.4786607E0,1.2927293E5,7.480104E-1,8.9087427E-1,3.6200732E-1,2.924656E4,1.349492E0,4.3659777E4,-1.7222381E0,-3.1891568E0,3.6200732E-1,1.2927293E5,4.3344668E4,7.0144005E-2,-3.3022004E-1,1.2326124E5,4.0497848E4,1.12364586E5,-7.2784525E-1,5.6445273E4,1.12364586E5,4.6389923E2,9.94036E2,1.3155303E3,1.6900962E3,5.369984E2,9.484059E2,2.1134785E3,3.1632397E2,1.0570349E4,2.0606172E3,5.509648E2,9.8088306E2,2.808467E3,4.3852935E3,9.105249E3,2.8190723E3,-1.602464E2,-4.946606E2,5.1479062E3,1.1632396E3,-1.1701899E2,1.6838757E3,-6.1405148E1,3.0373297E2,-7.653883E2,2.4262585E3,-9.832211E2,-8.242862E2,-6.0405145E2,-2.9296918E2,-1.8145819E2,1.2627852E3],"split_indices":[9,6,9,9,6,8,8,6,9,9,9,6,8,9,8,6,8,6,8,8,8,6,7,9,9,6,6,6,8,6,6,0,0,0,0,0,0,0,0,0,0,0,0,0,0,0,0,0,0,0,0,0,0,0,0,0,0,0,0,0,0,0,0],"split_type":[0,0,0,0,0,0,0,0,0,0,0,0,0,0,0,0,0,0,0,0,0,0,0,0,0,0,0,0,0,0,0,0,0,0,0,0,0,0,0,0,0,0,0,0,0,0,0,0,0,0,0,0,0,0,0,0,0,0,0,0,0,0,0],"sum_hessian":[1.26317E5,4.244E4,8.3877E4,3.6804E4,5.636E3,4.4829E4,3.9048E4,7.633E3,2.9171E4,4.012E3,1.624E3,2.344E4,2.1389E4,3.1004E4,8.044E3,1.193E3,6.44E3,1.7938E4,1.1233E4,3.232E3,7.8E2,6.35E2,9.89E2,2.3235E4,2.05E2,1.2805E4,8.584E3,9.089E3,2.1915E4,5.502E3,2.542E3,6.09E2,5.84E2,4.014E3,2.426E3,9.981E3,7.957E3,1.15E2,1.1118E4,5E0,3.227E3,2.79E2,5.01E2,1.08E2,5.27E2,5E0,9.84E2,7.073E3,1.6162E4,9E0,1.96E2,1.2755E4,5E1,2.979E3,5.605E3,9.055E3,3.4E1,1.5129E4,6.786E3,5.266E3,2.36E2,2.521E3,2.1E1],"tree_param":{"num_deleted":"0","num_feature":"10","num_nodes":"63","size_leaf_vector":"1"}},{"base_weights":[3.8858593E-1,3.0271287E4,-1.5316229E4,2.3648064E4,7.351014E4,-6.3000537E3,-2.5666809E4,3.8764508E4,1.6839164E4,5.9318387E4,1.08512E5,-1.2204445E4,1.7078047E2,-2.8487338E4,-1.4793449E4,2.2565979E4,4.324871E4,1.0152878E4,2.134985E4,6.716178E4,2.677419E4,1.3647364E5,9.419707E4,-1.2702902E4,4.4078887E4,-3.5518894E3,5.723761E3,-2.435275E4,-3.0200922E4,-1.9101525E4,-5.4650444E3,2.2698479E2,7.939357E2,1.4876526E3,1.0469645E3,8.652743E1,4.5419986E2,8.049384E2,4.1848743E2,1.030609E4,1.9988179E3,4.9542496E2,9.3319305E2,2.840181E3,4.3576245E3,2.5101187E3,3.614417E3,-1.554397E2,-4.7982175E2,5.008913E3,1.1285197E3,5.0149467E1,-1.8561522E2,-5.956358E1,2.9462256E2,-7.424292E2,2.3555508E3,-9.537263E2,-7.995613E2,-6.552855E2,-5.2594165E2,-1.7601663E2,1.2266235E3],"categories":[],"categories_nodes":[],"categories_segments":[],"categories_sizes":[],"default_left":[0,0,0,0,0,0,0,0,0,0,0,0,0,0,0,0,0,0,0,0,0,0,0,0,0,0,0,0,0,0,0,0,0,0,0,0,0,0,0,0,0,0,0,0,0,0,0,0,0,0,0,0,0,0,0,0,0,0,0,0,0,0,0],"id":1,"left_children":[1,3,5,7,9,11,13,15,17,19,21,23,25,27,29,31,33,35,37,39,41,43,45,47,49,51,53,55,57,59,61,-1,-1,-1,-1,-1,-1,-1,-1,-1,-1,-1,-1,-1,-1,-1,-1,-1,-1,-1,-1,-1,-1,-1,-1,-1,-1,-1,-1,-1,-1,-1,-1],"loss_changes":[5.856752E13,1.2152543E13,7.827555E12,3.787551E12,2.793675E12,1.7127921E12,1.1971592E12,8.291971E11,7.651475E11,1.0225493E12,6.3758035E11,6.581938E11,4.4219256E11,2.1893218E11,3.2320376E11,1.4482394E11,4.720469E11,3.7060765E11,6.142925E11,4.547087E11,3.4200945E10,1.8738263E11,2.881728E11,5.7511694E11,1.5728905E11,1.7629148E11,2.7117309E11,3.7120482E11,1.2281551E11,2.330329E10,4.7646237E10,0E0,0E0,0E0,0E0,0E0,0E0,0E0,0E0,0E0,0E0,0E0,0E0,0E0,0E0,0E0,0E0,0E0,0E0,0E0,0E0,0E0,0E0,0E0,0E0,0E0,0E0,0E0,0E0,0E0,0E0,0E0,0E0],"parents":[2147483647,0,0,1,1,2,2,3,3,4,4,5,5,6,6,7,7,8,8,9,9,10,10,11,11,12,12,13,13,14,14,15,15,16,16,17,17,18,18,19,19,20,20,21,21,22,22,23,23,24,24,25,25,26,26,27,27,28,28,29,29,30,30],"right_children":[2,4,6,8,10,12,14,16,18,20,22,24,26,28,30,32,34,36,38,40,42,44,46,48,50,52,54,56,58,60,62,-1,-1,-1,-1,-1,-1,-1,-1,-1,-1,-1,-1,-1,-1,-1,-1,-1,-1,-1,-1,-1,-1,-1,-1,-1,-1,-1,-1,-1,-1,-1,-1],"split_conditions":[-4.1848943E-1,7.0803266E4,5.7721555E-1,-1.3285264E0,1.1675101E5,3.6200732E-1,-1.2413515E-2,3.8936164E4,4.1004855E4,-7.5622016E-1,-1.566178E0,1.2927293E5,7.480104E-1,8.9087427E-1,3.6200732E-1,2.9147812E4,-1.6301488E0,9.454631E-1,-7.781272E-1,-3.1891568E0,1.7337039E-1,1.2927293E5,1.5917602E5,7.0144005E-2,-3.3022004E-1,-7.5334206E-2,4.0497848E4,1.12364586E5,-7.2784525E-1,3.8936164E4,1.12364586E5,2.2698479E2,7.939357E2,1.4876526E3,1.0469645E3,8.652743E1,4.5419986E2,8.049384E2,4.1848743E2,1.030609E4,1.9988179E3,4.9542496E2,9.3319305E2,2.840181E3,4.3576245E3,2.5101187E3,3.614417E3,-1.554397E2,-4.7982175E2,5.008913E3,1.1285197E3,5.0149467E1,-1.8561522E2,-5.956358E1,2.9462256E2,-7.424292E2,2.3555508E3,-9.537263E2,-7.995613E2,-6.552855E2,-5.2594165E2,-1.7601663E2,1.2266235E3],"split_indices":[9,6,9,9,6,8,8,6,6,9,9,6,8,9,8,6,9,8,9,8,8,6,6,9,9,9,6,6,8,6,6,0,0,0,0,0,0,0,0,0,0,0,0,0,0,0,0,0,0,0,0,0,0,0,0,0,0,0,0,0,0,0,0],"split_type":[0,0,0,0,0,0,0,0,0,0,0,0,0,0,0,0,0,0,0,0,0,0,0,0,0,0,0,0,0,0,0,0,0,0,0,0,0,0,0,0,0,0,0,0,0,0,0,0,0,0,0,0,0,0,0,0,0,0,0,0,0,0,0],"sum_hessian":[1.26317E5,4.244E4,8.3877E4,3.6804E4,5.636E3,4.4829E4,3.9048E4,1.1428E4,2.5376E4,4.012E3,1.624E3,2.344E4,2.1389E4,3.1004E4,8.044E3,2.479E3,8.949E3,1.0224E4,1.5152E4,3.232E3,7.8E2,5.47E2,1.077E3,2.3235E4,2.05E2,1.2805E4,8.584E3,9.089E3,2.1915E4,5.502E3,2.542E3,5.12E2,1.967E3,5.084E3,3.865E3,4.161E3,6.063E3,8.703E3,6.449E3,5E0,3.227E3,2.33E2,5.47E2,9.7E1,4.5E2,7.72E2,3.05E2,7.073E3,1.6162E4,9E0,1.96E2,4.294E3,8.511E3,2.979E3,5.605E3,9.055E3,3.4E1,1.5129E4,6.786E3,1.999E3,3.503E3,2.521E3,2.1E1],"tree_param":{"num_deleted":"0","num_feature":"10","num_nodes":"63","size_leaf_vector":"1"}},{"base_weights":[6.7548364E-1,2.9363912E4,-1.4856679E4,2.2938768E4,7.130964E4,-6.1109272E3,-2.489681E4,3.7601887E4,1.6334059E4,5.7542258E4,1.05264836E5,-1.1838077E4,1.6566133E2,-2.7632723E4,-1.4349662E4,2.188941E4,4.195153E4,1.0674272E4,2.1369664E4,6.7740734E4,3.3972832E4,1.3239256E5,9.137684E4,-1.2321844E4,4.2786312E4,-3.4453442E3,5.552076E3,-2.362199E4,-2.9294975E4,-1.8528693E4,-5.300681E3,3.6064194E2,8.26855E2,1.4430319E3,1.0155636E3,1.24627235E2,4.6484653E2,8.025548E2,4.1880505E2,1.2745595E4,2.0161743E3,1.448728E3,7.791838E2,2.7558452E3,4.227186E3,2.4349124E3,3.5063389E3,-1.5077711E2,-4.65428E2,4.873672E3,1.0948359E3,-1.10307755E2,1.6363422E3,5.283354E1,4.0529144E2,-7.2015875E2,2.2869033E3,-9.2511646E2,-7.7557794E2,-5.686854E2,-2.6850552E2,-1.8098029E2,5.6601825E2],"categories":[],"categories_nodes":[],"categories_segments":[],"categories_sizes":[],"default_left":[0,0,0,0,0,0,0,0,0,0,0,0,0,0,0,0,0,0,0,0,0,0,0,0,0,0,0,0,0,0,0,0,0,0,0,0,0,0,0,0,0,0,0,0,0,0,0,0,0,0,0,0,0,0,0,0,0,0,0,0,0,0,0],"id":2,"left_children":[1,3,5,7,9,11,13,15,17,19,21,23,25,27,29,31,33,35,37,39,41,43,45,47,49,51,53,55,57,59,61,-1,-1,-1,-1,-1,-1,-1,-1,-1,-1,-1,-1,-1,-1,-1,-1,-1,-1,-1,-1,-1,-1,-1,-1,-1,-1,-1,-1,-1,-1,-1,-1],"loss_changes":[5.510793E13,1.1436525E13,7.365049E12,3.563789E12,2.6290946E12,1.6115042E12,1.1264055E12,7.801825E11,7.230283E11,9.623128E11,6.00121E11,6.199656E11,4.1606264E11,2.0601163E11,3.041312E11,1.3848818E11,4.4414953E11,3.755306E11,5.3512294E11,5.0632904E11,1.3780373E11,1.7615238E11,2.712729E11,5.411284E11,1.4917557E11,1.7217759E11,2.5896057E11,3.4973784E11,1.1555517E11,2.2363505E10,4.510159E10,0E0,0E0,0E0,0E0,0E0,0E0,0E0,0E0,0E0,0E0,0E0,0E0,0E0,0E0,0E0,0E0,0E0,0E0,0E0,0E0,0E0,0E0,0E0,0E0,0E0,0E0,0E0,0E0,0E0,0E0,0E0,0E0],"parents":[2147483647,0,0,1,1,2,2,3,3,4,4,5,5,6,6,7,7,8,8,9,9,10,10,11,11,12,12,13,13,14,14,15,15,16,16,17,17,18,18,19,19,20,20,21,21,22,22,23,23,24,24,25,25,26,26,27,27,28,28,29,29,30,30],"right_children":[2,4,6,8,10,12,14,16,18,20,22,24,26,28,30,32,34,36,38,40,42,44,46,48,50,52,54,56,58,60,62,-1,-1,-1,-1,-1,-1,-1,-1,-1,-1,-1,-1,-1,-1,-1,-1,-1,-1,-1,-1,-1,-1,-1,-1,-1,-1,-1,-1,-1,-1,-1,-1],"split_conditions":[-4.1848943E-1,7.0803266E4,5.7721555E-1,-1.3285264E0,1.1675101E5,3.6200732E-1,-1.2413515E-2,3.8936164E4,4.1836754E4,-8.950798E-1,-1.566178E0,1.2927293E5,7.480104E-1,8.9087427E-1,3.6200732E-1,2.924656E4,-1.6301488E0,9.454631E-1,-7.781272E-1,-3.1891568E0,-7.5622016E-1,1.2927293E5,1.5917602E5,7.0144005E-2,-3.3022004E-1,1.2326124E5,4.245477E4,1.12364586E5,-7.2784525E-1,5.6445273E4,7.0803266E4,3.6064194E2,8.26855E2,1.4430319E3,1.0155636E3,1.24627235E2,4.6484653E2,8.025548E2,4.1880505E2,1.2745595E4,2.0161743E3,1.448728E3,7.791838E2,2.7558452E3,4.227186E3,2.4349124E3,3.5063389E3,-1.5077711E2,-4.65428E2,4.873672E3,1.0948359E3,-1.10307755E2,1.6363422E3,5.283354E1,4.0529144E2,-7.2015875E2,2.2869033E3,-9.2511646E2,-7.7557794E2,-5.686854E2,-2.6850552E2,-1.8098029E2,5.6601825E2],"split_indices":[9,6,9,9,6,8,8,6,6,9,9,6,8,9,8,6,9,8,9,8,9,6,6,9,9,6,6,6,8,6,6,0,0,0,0,0,0,0,0,0,0,0,0,0,0,0,0,0,0,0,0,0,0,0,0,0,0,0,0,0,0,0,0],"split_type":[0,0,0,0,0,0,0,0,0,0,0,0,0,0,0,0,0,0,0,0,0,0,0,0,0,0,0,0,0,0,0,0,0,0,0,0,0,0,0,0,0,0,0,0,0,0,0,0,0,0,0,0,0,0,0,0,0,0,0,0,0,0,0],"sum_hessian":[1.26317E5,4.244E4,8.3877E4,3.6804E4,5.636E3,4.4829E4,3.9048E4,1.1428E4,2.5376E4,4.012E3,1.624E3,2.344E4,2.1389E4,3.1004E4,8.044E3,2.479E3,8.949E3,1.1949E4,1.3427E4,2.799E3,1.213E3,5.47E2,1.077E3,2.3235E4,2.05E2,1.2805E4,8.584E3,9.089E3,2.1915E4,5.502E3,2.542E3,9.06E2,1.573E3,5.084E3,3.865E3,5.08E3,6.869E3,7.776E3,5.651E3,3E0,2.796E3,4.33E2,7.8E2,9.7E1,4.5E2,7.72E2,3.05E2,7.073E3,1.6162E4,9E0,1.96E2,1.2755E4,5E1,5.815E3,2.769E3,9.055E3,3.4E1,1.5129E4,6.786E3,5.266E3,2.36E2,2.468E3,7.4E1],"tree_param":{"num_deleted":"0","num_feature":"10","num_nodes":"63","size_leaf_vector":"1"}},{"base_weights":[9.891005E-1,2.8483828E4,-1.4410896E4,2.2250752E4,6.917566E4,-5.927435E3,-2.4149922E4,4.0917223E4,1.7365174E4,5.5820223E4,1.0211484E5,-1.1482705E4,1.6078493E2,-2.6803744E4,-1.391923E4,2.2188893E4,4.4382637E4,2.4757566E4,1.2885732E4,6.571379E4,3.295548E4,1.2843353E5,8.864105E4,-1.1952213E4,4.1531695E4,-3.3418638E3,5.3855674E3,-2.2913156E4,-2.8416203E4,-1.7972986E4,-5.141509E3,3.182919E1,7.6089496E2,1.1944401E3,1.5576348E3,5.7217847E2,9.57652E2,8.736054E0,4.445542E2,1.2458818E4,1.9557106E3,1.4053662E3,7.558382E2,2.6740137E3,4.100652E3,2.3619595E3,3.4014924E3,-1.5053766E2,-4.533951E2,4.742083E3,1.0621576E3,5.1648846E1,-1.768925E2,-5.936173E1,2.7897803E2,-6.985564E2,2.220256E3,-8.973648E2,-7.52314E2,-5.7152094E2,-4.2746048E2,-1.6578195E2,1.175289E3],"categories":[],"categories_nodes":[],"categories_segments":[],"categories_sizes":[],"default_left":[0,0,0,0,0,0,0,0,0,0,0,0,0,0,0,0,0,0,0,0,0,0,0,0,0,0,0,0,0,0,0,0,0,0,0,0,0,0,0,0,0,0,0,0,0,0,0,0,0,0,0,0,0,0,0,0,0,0,0,0,0,0,0],"id":3,"left_children":[1,3,5,7,9,11,13,15,17,19,21,23,25,27,29,31,33,35,37,39,41,43,45,47,49,51,53,55,57,59,61,-1,-1,-1,-1,-1,-1,-1,-1,-1,-1,-1,-1,-1,-1,-1,-1,-1,-1,-1,-1,-1,-1,-1,-1,-1,-1,-1,-1,-1,-1,-1,-1],"loss_changes":[5.1852868E13,1.0762995E13,6.929909E12,3.3557787E12,2.4741088E12,1.5162287E12,1.0598251E12,4.9447174E11,9.656766E11,9.05631E11,5.648616E11,5.8395905E11,3.914674E11,1.9385654E11,2.861708E11,8.004967E10,2.197333E11,4.4764234E11,4.4221622E11,4.852726E11,1.2968775E11,1.6559636E11,2.5536705E11,5.0923412E11,1.4147964E11,1.6565525E11,2.4745212E11,3.2951186E11,1.0872265E11,2.1816017E10,4.3556016E10,0E0,0E0,0E0,0E0,0E0,0E0,0E0,0E0,0E0,0E0,0E0,0E0,0E0,0E0,0E0,0E0,0E0,0E0,0E0,0E0,0E0,0E0,0E0,0E0,0E0,0E0,0E0,0E0,0E0,0E0,0E0,0E0],"parents":[2147483647,0,0,1,1,2,2,3,3,4,4,5,5,6,6,7,7,8,8,9,9,10,10,11,11,12,12,13,13,14,14,15,15,16,16,17,17,18,18,19,19,20,20,21,21,22,22,23,23,24,24,25,25,26,26,27,27,28,28,29,29,30,30],"right_children":[2,4,6,8,10,12,14,16,18,20,22,24,26,28,30,32,34,36,38,40,42,44,46,48,50,52,54,56,58,60,62,-1,-1,-1,-1,-1,-1,-1,-1,-1,-1,-1,-1,-1,-1,-1,-1,-1,-1,-1,-1,-1,-1,-1,-1,-1,-1,-1,-1,-1,-1,-1,-1],"split_conditions":[-4.1848943E-1,7.0803266E4,5.7721555E-1,-1.5326077E0,1.1675101E5,3.6200732E-1,-1.2413515E-2,3.480109E4,-1.0400501E0,-8.950798E-1,-1.566178E0,1.2927293E5,7.480104E-1,8.9087427E-1,3.6200732E-1,5.535397E-1,1.349492E0,4.3659777E4,3.3277543E4,-3.1891568E0,-7.5622016E-1,1.2927293E5,1.5917602E5,8.4248185E-2,-3.3022004E-1,-7.5334206E-2,4.0497848E4,1.12364586E5,-7.2784525E-1,4.5374523E4,1.12364586E5,3.182919E1,7.6089496E2,1.1944401E3,1.5576348E3,5.7217847E2,9.57652E2,8.736054E0,4.445542E2,1.2458818E4,1.9557106E3,1.4053662E3,7.558382E2,2.6740137E3,4.100652E3,2.3619595E3,3.4014924E3,-1.5053766E2,-4.533951E2,4.742083E3,1.0621576E3,5.1648846E1,-1.768925E2,-5.936173E1,2.7897803E2,-6.985564E2,2.220256E3,-8.973648E2,-7.52314E2,-5.7152094E2,-4.2746048E2,-1.6578195E2,1.175289E3],"split_indices":[9,6,9,9,6,8,8,6,9,9,9,6,8,9,8,8,8,6,6,8,9,6,6,9,9,9,6,6,8,6,6,0,0,0,0,0,0,0,0,0,0,0,0,0,0,0,0,0,0,0,0,0,0,0,0,0,0,0,0,0,0,0,0],"split_type":[0,0,0,0,0,0,0,0,0,0,0,0,0,0,0,0,0,0,0,0,0,0,0,0,0,0,0,0,0,0,0,0,0,0,0,0,0,0,0,0,0,0,0,0,0,0,0,0,0,0,0,0,0,0,0,0,0,0,0,0,0,0,0],"sum_hessian":[1.26317E5,4.244E4,8.3877E4,3.6804E4,5.636E3,4.4829E4,3.9048E4,7.633E3,2.9171E4,4.012E3,1.624E3,2.344E4,2.1389E4,3.1004E4,8.044E3,1.193E3,6.44E3,1.1005E4,1.8166E4,2.799E3,1.213E3,5.47E2,1.077E3,2.3235E4,2.05E2,1.2805E4,8.584E3,9.089E3,2.1915E4,5.502E3,2.542E3,1.56E2,1.037E3,4.014E3,2.426E3,6.138E3,4.867E3,2.417E3,1.5749E4,3E0,2.796E3,4.33E2,7.8E2,9.7E1,4.5E2,7.72E2,3.05E2,7.276E3,1.5959E4,9E0,1.96E2,4.294E3,8.511E3,2.979E3,5.605E3,9.055E3,3.4E1,1.5129E4,6.786E3,4.264E3,1.238E3,2.521E3,2.1E1],"tree_param":{"num_deleted":"0","num_feature":"10","num_nodes":"63","size_leaf_vector":"1"}},{"base_weights":[1.2739916E0,2.7903379E4,-1.3844516E4,2.1808668E4,6.739161E4,-4.791927E3,-2.2594396E4,3.969017E4,1.704508E4,5.382168E4,9.808237E4,-1.02666E4,5.3076245E2,-2.4762582E4,-9.059275E3,2.152389E4,4.3051582E4,1.5555709E4,3.7803523E4,6.316547E4,3.1863291E4,1.2742575E5,8.6781086E4,-1.0817582E4,4.0000965E4,-3.0162593E3,5.628158E3,-2.6721012E4,-2.0242674E4,-1.2460008E4,-2.4919246E3,4.0505948E2,8.955546E2,1.1586157E3,1.5109252E3,2.698065E2,5.972528E2,9.113364E2,1.3376965E3,1.2178495E4,1.879156E3,1.3395194E3,7.377606E2,2.8476296E3,4.1157983E3,2.2753433E3,3.4498699E3,-1.4415697E2,-4.2301184E2,6.554449E2,2.05361E3,-1.9968858E2,2.0986115E1,5.397331E1,4.0146664E2,-4.834155E2,-8.29893E2,-7.254325E2,-5.890422E2,-3.950709E2,1.6152487E1,-8.9420364E1,1.6615559E3],"categories":[],"categories_nodes":[],"categories_segments":[],"categories_sizes":[],"default_left":[0,0,0,0,0,0,0,0,0,0,0,0,0,0,0,0,0,0,0,0,0,0,0,0,0,0,0,0,0,0,0,0,0,0,0,0,0,0,0,0,0,0,0,0,0,0,0,0,0,0,0,0,0,0,0,0,0,0,0,0,0,0,0],"id":4,"left_children":[1,3,5,7,9,11,13,15,17,19,21,23,25,27,29,31,33,35,37,39,41,43,45,47,49,51,53,55,57,59,61,-1,-1,-1,-1,-1,-1,-1,-1,-1,-1,-1,-1,-1,-1,-1,-1,-1,-1,-1,-1,-1,-1,-1,-1,-1,-1,-1,-1,-1,-1,-1,-1],"loss_changes":[4.88004E13,1.0081133E13,6.6871173E12,3.0908508E12,2.3273773E12,1.2091982E12,1.2596271E12,4.6523954E11,8.855245E11,7.9529666E11,5.579987E11,5.669936E11,3.8045034E11,3.2699843E11,1.3238613E11,7.936318E10,2.0675926E11,7.6371565E11,9.5299305E10,4.667694E11,1.0694492E11,1.3778603E11,3.745136E11,3.9931897E11,1.1316658E11,1.6783029E11,2.5632526E11,2.5749881E11,2.631716E10,3.6005413E10,5.7419403E10,0E0,0E0,0E0,0E0,0E0,0E0,0E0,0E0,0E0,0E0,0E0,0E0,0E0,0E0,0E0,0E0,0E0,0E0,0E0,0E0,0E0,0E0,0E0,0E0,0E0,0E0,0E0,0E0,0E0,0E0,0E0,0E0],"parents":[2147483647,0,0,1,1,2,2,3,3,4,4,5,5,6,6,7,7,8,8,9,9,10,10,11,11,12,12,13,13,14,14,15,15,16,16,17,17,18,18,19,19,20,20,21,21,22,22,23,23,24,24,25,25,26,26,27,27,28,28,29,29,30,30],"right_children":[2,4,6,8,10,12,14,16,18,20,22,24,26,28,30,32,34,36,38,40,42,44,46,48,50,52,54,56,58,60,62,-1,-1,-1,-1,-1,-1,-1,-1,-1,-1,-1,-1,-1,-1,-1,-1,-1,-1,-1,-1,-1,-1,-1,-1,-1,-1,-1,-1,-1,-1,-1,-1],"split_conditions":[-4.330066E-1,7.0803266E4,4.8190188E-1,-1.5326077E0,1.12364586E5,3.6200732E-1,1.7337039E-1,3.480109E4,1.349492E0,-8.950798E-1,-1.7898648E0,1.1675101E5,7.480104E-1,-3.755887E-1,5.535397E-1,2.924656E4,1.349492E0,4.1004855E4,4.1114516E4,-3.1891568E0,-7.5622016E-1,1.2927293E5,1.5917602E5,7.0144005E-2,3.032822E-1,4.1836754E4,4.245477E4,6.478436E-1,2.9147812E4,5.6445273E4,1.12364586E5,4.0505948E2,8.955546E2,1.1586157E3,1.5109252E3,2.698065E2,5.972528E2,9.113364E2,1.3376965E3,1.2178495E4,1.879156E3,1.3395194E3,7.377606E2,2.8476296E3,4.1157983E3,2.2753433E3,3.4498699E3,-1.4415697E2,-4.2301184E2,6.554449E2,2.05361E3,-1.9968858E2,2.0986115E1,5.397331E1,4.0146664E2,-4.834155E2,-8.29893E2,-7.254325E2,-5.890422E2,-3.950709E2,1.6152487E1,-8.9420364E1,1.6615559E3],"split_indices":[9,6,9,9,6,8,8,6,8,9,9,6,8,8,8,6,8,6,6,8,9,6,6,9,9,6,6,9,6,6,6,0,0,0,0,0,0,0,0,0,0,0,0,0,0,0,0,0,0,0,0,0,0,0,0,0,0,0,0,0,0,0,0],"split_type":[0,0,0,0,0,0,0,0,0,0,0,0,0,0,0,0,0,0,0,0,0,0,0,0,0,0,0,0,0,0,0,0,0,0,0,0,0,0,0,0,0,0,0,0,0,0,0,0,0,0,0,0,0,0,0,0,0,0,0,0,0,0,0],"sum_hessian":[1.26317E5,4.1893E4,8.4424E4,3.6293E4,5.6E3,4.1495E4,4.2929E4,7.633E3,2.866E4,3.885E3,1.715E3,2.0455E4,2.104E4,3.7001E4,5.928E3,1.193E3,6.44E3,2.6743E4,1.917E3,2.724E3,1.161E3,4.74E2,1.241E3,2.0234E4,2.21E2,1.2407E4,8.633E3,2.5812E4,1.1189E4,3.905E3,2.023E3,6.09E2,5.84E2,4.014E3,2.426E3,1.0666E4,1.6077E4,9.18E2,9.99E2,3E0,2.721E3,4.19E2,7.42E2,1.12E2,3.62E2,8.97E2,3.44E2,7.147E3,1.3087E4,1.36E2,8.5E1,6.267E3,6.14E3,5.78E3,2.853E3,2.107E3,2.3705E4,1.491E3,9.698E3,3.703E3,2.02E2,2.007E3,1.6E1],"tree_param":{"num_deleted":"0","num_feature":"10","num_nodes":"63","size_leaf_vector":"1"}},{"base_weights":[1.5282328E0,2.7067135E4,-1.3429168E4,2.1154604E4,6.5375004E4,-4.6481104E3,-2.1916598E4,3.4415402E4,1.5058777E4,5.221118E4,9.514729E4,-9.958497E3,5.148534E2,-2.4019773E4,-8.787296E3,1.9859832E4,3.8444832E4,9.011517E3,1.9152623E4,6.127566E4,3.090918E4,8.407348E4,1.2449781E5,-1.0459587E4,4.2159598E4,-2.9257856E3,5.459367E3,-2.010053E4,-2.6183756E4,-1.4004716E4,-4.7526714E3,1.7921312E2,7.040829E2,1.3567247E3,9.669095E2,6.4973755E1,4.0907712E2,7.191053E2,3.690701E2,1.1904479E4,1.8228021E3,1.2994296E3,7.156576E2,2.138773E3,3.4067705E3,2.361152E3,3.9428037E3,-1.3701355E2,-4.105061E2,6.300199E2,2.1318462E3,8.3307846E1,-1.5548422E2,5.235441E1,3.8942694E2,1.9415531E3,-6.09557E2,-8.2786523E2,-6.245767E2,-1.6200993E2,-4.5956036E2,-1.5542238E2,1.3843175E3],"categories":[],"categories_nodes":[],"categories_segments":[],"categories_sizes":[],"default_left":[0,0,0,0,0,0,0,0,0,0,0,0,0,0,0,0,0,0,0,0,0,0,0,0,0,0,0,0,0,0,0,0,0,0,0,0,0,0,0,0,0,0,0,0,0,0,0,0,0,0,0,0,0,0,0,0,0,0,0,0,0,0,0],"id":5,"left_children":[1,3,5,7,9,11,13,15,17,19,21,23,25,27,29,31,33,35,37,39,41,43,45,47,49,51,53,55,57,59,61,-1,-1,-1,-1,-1,-1,-1,-1,-1,-1,-1,-1,-1,-1,-1,-1,-1,-1,-1,-1,-1,-1,-1,-1,-1,-1,-1,-1,-1,-1,-1,-1],"loss_changes":[4.5918217E13,9.487459E12,6.291975E12,2.9333253E12,2.1901607E12,1.1377148E12,1.1852243E12,6.695546E11,6.154234E11,7.484589E11,5.4727174E11,5.3466628E11,3.5797153E11,3.1329563E11,1.2474083E11,1.2416503E11,3.756083E11,3.1780962E11,4.890202E11,4.4731833E11,1.0064744E11,4.6259713E11,1.3815094E11,3.8485518E11,1.17756854E11,1.597196E11,2.4118213E11,2.448252E11,1.7994508E11,2.9142876E10,7.311839E10,0E0,0E0,0E0,0E0,0E0,0E0,0E0,0E0,0E0,0E0,0E0,0E0,0E0,0E0,0E0,0E0,0E0,0E0,0E0,0E0,0E0,0E0,0E0,0E0,0E0,0E0,0E0,0E0,0E0,0E0,0E0,0E0],"parents":[2147483647,0,0,1,1,2,2,3,3,4,4,5,5,6,6,7,7,8,8,9,9,10,10,11,11,12,12,13,13,14,14,15,15,16,16,17,17,18,18,19,19,20,20,21,21,22,22,23,23,24,24,25,25,26,26,27,27,28,28,29,29,30,30],"right_children":[2,4,6,8,10,12,14,16,18,20,22,24,26,28,30,32,34,36,38,40,42,44,46,48,50,52,54,56,58,60,62,-1,-1,-1,-1,-1,-1,-1,-1,-1,-1,-1,-1,-1,-1,-1,-1,-1,-1,-1,-1,-1,-1,-1,-1,-1,-1,-1,-1,-1,-1,-1,-1],"split_conditions":[-4.330066E-1,7.0803266E4,4.8190188E-1,-1.3285264E0,1.12364586E5,3.6200732E-1,1.7337039E-1,3.8936164E4,4.1004855E4,-8.950798E-1,1.145942E0,1.2927293E5,7.480104E-1,8.838388E-1,3.6200732E-1,2.9147812E4,-1.698275E0,9.454631E-1,-7.781272E-1,-3.1891568E0,-7.5622016E-1,1.5917602E5,1.2927293E5,7.0144005E-2,3.032822E-1,-1.1910113E-1,4.245477E4,-3.3238213E0,-3.755887E-1,5.6923825E-1,1.12364586E5,1.7921312E2,7.040829E2,1.3567247E3,9.669095E2,6.4973755E1,4.0907712E2,7.191053E2,3.690701E2,1.1904479E4,1.8228021E3,1.2994296E3,7.156576E2,2.138773E3,3.4067705E3,2.361152E3,3.9428037E3,-1.3701355E2,-4.105061E2,6.300199E2,2.1318462E3,8.3307846E1,-1.5548422E2,5.235441E1,3.8942694E2,1.9415531E3,-6.09557E2,-8.2786523E2,-6.245767E2,-1.6200993E2,-4.5956036E2,-1.5542238E2,1.3843175E3],"split_indices":[9,6,9,9,6,8,8,6,6,9,8,6,8,9,8,6,9,8,9,8,9,6,6,9,9,9,6,8,8,9,6,0,0,0,0,0,0,0,0,0,0,0,0,0,0,0,0,0,0,0,0,0,0,0,0,0,0,0,0,0,0,0,0],"split_type":[0,0,0,0,0,0,0,0,0,0,0,0,0,0,0,0,0,0,0,0,0,0,0,0,0,0,0,0,0,0,0,0,0,0,0,0,0,0,0,0,0,0,0,0,0,0,0,0,0,0,0,0,0,0,0,0,0,0,0,0,0,0,0],"sum_hessian":[1.26317E5,4.1893E4,8.4424E4,3.6293E4,5.6E3,4.1495E4,4.2929E4,1.1428E4,2.4865E4,3.885E3,1.715E3,2.0455E4,2.104E4,3.7001E4,5.928E3,2.479E3,8.949E3,1.0039E4,1.4826E4,2.724E3,1.161E3,1.248E3,4.67E2,2.0261E4,1.94E2,1.2407E4,8.633E3,1.3166E4,2.3835E4,2.584E3,3.344E3,5.12E2,1.967E3,4.277E3,4.672E3,4.048E3,5.991E3,8.703E3,6.123E3,3E0,2.721E3,4.19E2,7.42E2,8.73E2,3.75E2,6.3E1,4.04E2,7.166E3,1.3095E4,1.13E2,8.1E1,3.518E3,8.889E3,5.78E3,2.853E3,3.3E1,1.3133E4,1.8866E4,4.969E3,3.43E2,2.241E3,3.317E3,2.7E1],"tree_param":{"num_deleted":"0","num_feature":"10","num_nodes":"63","size_leaf_vector":"1"}},{"base_weights":[1.7628182E0,2.6255895E4,-1.3026257E4,2.0520096E4,6.341868E4,-4.508605E3,-2.1259088E4,3.338322E4,1.4607077E4,5.06489E4,9.229977E4,2.8238447E3,-8.031316E3,-2.3299184E4,-8.523575E3,2.6607352E4,4.177185E4,8.741219E3,1.8578117E4,5.9442434E4,2.9983639E4,1.2051935E5,8.143295E4,-6.5913477E3,5.3766553E3,-8.401607E3,4.5700844E4,-1.949741E4,-2.5398305E4,-1.17601875E4,-2.2732153E3,3.0643387E2,8.8038556E2,1.1063771E3,1.5673737E3,6.3025055E1,3.9680682E2,6.975346E2,3.5799982E2,1.1636629E4,1.7681382E3,1.2605394E3,6.942168E2,2.697354E3,3.891459E3,2.1331484E3,3.2423896E3,-4.3215533E2,-1.0437997E2,1.5240016E2,2.1136035E3,-3.616497E2,-9.72854E1,4.3523462E2,2.158663E3,1.8850197E3,-5.9127167E2,-8.113611E2,-6.318342E2,-3.7325684E2,2.2091473E1,-8.207872E1,1.5755549E3],"categories":[],"categories_nodes":[],"categories_segments":[],"categories_sizes":[],"default_left":[0,0,0,0,0,0,0,0,0,0,0,0,0,0,0,0,0,0,0,0,0,0,0,0,0,0,0,0,0,0,0,0,0,0,0,0,0,0,0,0,0,0,0,0,0,0,0,0,0,0,0,0,0,0,0,0,0,0,0,0,0,0,0],"id":6,"left_children":[1,3,5,7,9,11,13,15,17,19,21,23,25,27,29,31,33,35,37,39,41,43,45,47,49,51,53,55,57,59,61,-1,-1,-1,-1,-1,-1,-1,-1,-1,-1,-1,-1,-1,-1,-1,-1,-1,-1,-1,-1,-1,-1,-1,-1,-1,-1,-1,-1,-1,-1,-1,-1],"loss_changes":[4.3206067E13,8.928748E12,5.9201563E12,2.7600303E12,2.0610055E12,1.0718684E12,1.1151941E12,6.485149E11,5.7905565E11,7.04383E11,5.1640795E11,3.2371746E11,5.5808465E11,2.9479246E11,1.1991689E11,2.83676E11,2.596788E11,2.9902976E11,4.601209E11,4.2866416E11,9.472069E10,1.22033275E11,3.3412245E11,6.981194E10,2.0417882E11,5.2464045E11,1.561965E11,2.3067571E11,1.6970469E11,3.3284424E10,5.146105E10,0E0,0E0,0E0,0E0,0E0,0E0,0E0,0E0,0E0,0E0,0E0,0E0,0E0,0E0,0E0,0E0,0E0,0E0,0E0,0E0,0E0,0E0,0E0,0E0,0E0,0E0,0E0,0E0,0E0,0E0,0E0,0E0],"parents":[2147483647,0,0,1,1,2,2,3,3,4,4,5,5,6,6,7,7,8,8,9,9,10,10,11,11,12,12,13,13,14,14,15,15,16,16,17,17,18,18,19,19,20,20,21,21,22,22,23,23,24,24,25,25,26,26,27,27,28,28,29,29,30,30],"right_children":[2,4,6,8,10,12,14,16,18,20,22,24,26,28,30,32,34,36,38,40,42,44,46,48,50,52,54,56,58,60,62,-1,-1,-1,-1,-1,-1,-1,-1,-1,-1,-1,-1,-1,-1,-1,-1,-1,-1,-1,-1,-1,-1,-1,-1,-1,-1,-1,-1,-1,-1,-1,-1],"split_conditions":[-4.330066E-1,7.0803266E4,4.8190188E-1,-1.3285264E0,1.12364586E5,-7.5334206E-2,1.7337039E-1,4.245477E4,4.1004855E4,-8.950798E-1,-1.7898648E0,3.480109E4,1.2927293E5,8.838388E-1,5.535397E-1,2.924656E4,1.349492E0,9.454631E-1,-7.781272E-1,-3.1891568E0,-7.5622016E-1,1.2927293E5,1.5917602E5,3.6200732E-1,1.3548866E5,3.6200732E-1,3.032822E-1,-3.3238213E0,-5.530617E-1,5.6445273E4,1.12364586E5,3.0643387E2,8.8038556E2,1.1063771E3,1.5673737E3,6.3025055E1,3.9680682E2,6.975346E2,3.5799982E2,1.1636629E4,1.7681382E3,1.2605394E3,6.942168E2,2.697354E3,3.891459E3,2.1331484E3,3.2423896E3,-4.3215533E2,-1.0437997E2,1.5240016E2,2.1136035E3,-3.616497E2,-9.72854E1,4.3523462E2,2.158663E3,1.8850197E3,-5.9127167E2,-8.113611E2,-6.318342E2,-3.7325684E2,2.2091473E1,-8.207872E1,1.5755549E3],"split_indices":[9,6,9,9,6,9,8,6,6,9,9,6,6,9,8,6,8,8,9,8,9,6,6,8,6,8,9,8,8,6,6,0,0,0,0,0,0,0,0,0,0,0,0,0,0,0,0,0,0,0,0,0,0,0,0,0,0,0,0,0,0,0,0],"split_type":[0,0,0,0,0,0,0,0,0,0,0,0,0,0,0,0,0,0,0,0,0,0,0,0,0,0,0,0,0,0,0,0,0,0,0,0,0,0,0,0,0,0,0,0,0,0,0,0,0,0,0,0,0,0,0,0,0,0,0,0,0,0,0],"sum_hessian":[1.26317E5,4.1893E4,8.4424E4,3.6293E4,5.6E3,4.1495E4,4.2929E4,1.1428E4,2.4865E4,3.885E3,1.715E3,1.3466E4,2.8029E4,3.7001E4,5.928E3,6.324E3,5.104E3,1.0039E4,1.4826E4,2.724E3,1.161E3,4.74E2,1.241E3,2.872E3,1.0594E4,2.7838E4,1.91E2,1.3166E4,2.3835E4,3.905E3,2.023E3,9.06E2,5.418E3,3.482E3,1.622E3,4.048E3,5.991E3,8.703E3,6.123E3,3E0,2.721E3,4.19E2,7.42E2,1.12E2,3.62E2,8.97E2,3.44E2,8.17E2,2.055E3,1.0547E4,4.7E1,1.6296E4,1.1542E4,8.8E1,1.03E2,3.3E1,1.3133E4,1.7271E4,6.564E3,3.703E3,2.02E2,2.007E3,1.6E1],"tree_param":{"num_deleted":"0","num_feature":"10","num_nodes":"63","size_leaf_vector":"1"}},{"base_weights":[2.0070894E0,2.5223148E4,-1.275951E4,1.970186E4,6.1268184E4,-5.236333E3,-2.1396127E4,3.6369137E4,1.5339536E4,4.890299E4,8.923518E4,-1.0159128E4,1.587335E2,-2.376633E4,-1.2258831E4,1.9736129E4,3.9446832E4,1.9506393E4,8.684331E3,5.766408E4,2.8748932E4,7.856774E4,1.1776452E5,-1.0459269E4,5.539163E4,-3.0183992E3,4.897953E3,-2.0308309E4,-2.5199512E4,-1.5851765E4,-4.478976E3,-1.9837463E1,6.84068E2,1.0575566E3,1.3911088E3,4.2995758E2,7.798339E2,2.0005043E3,2.4235405E2,1.1374804E4,1.7151135E3,1.2228134E3,6.64281E2,1.9942762E3,3.1981873E3,2.2194377E3,3.7317776E3,-1.331657E2,-3.9617468E2,6.728773E3,1.2941161E3,-9.716058E1,1.5641536E3,-5.868794E1,2.5621796E2,-6.200846E2,2.2117227E3,-7.963771E2,-6.658304E2,-5.519688E2,-4.3180084E2,-3.3134448E2,-6.186099E1],"categories":[],"categories_nodes":[],"categories_segments":[],"categories_sizes":[],"default_left":[0,0,0,0,0,0,0,0,0,0,0,0,0,0,0,0,0,0,0,0,0,0,0,0,0,0,0,0,0,0,0,0,0,0,0,0,0,0,0,0,0,0,0,0,0,0,0,0,0,0,0,0,0,0,0,0,0,0,0,0,0,0,0],"id":7,"left_children":[1,3,5,7,9,11,13,15,17,19,21,23,25,27,29,31,33,35,37,39,41,43,45,47,49,51,53,55,57,59,61,-1,-1,-1,-1,-1,-1,-1,-1,-1,-1,-1,-1,-1,-1,-1,-1,-1,-1,-1,-1,-1,-1,-1,-1,-1,-1,-1,-1,-1,-1,-1,-1],"loss_changes":[4.0657037E13,8.4451934E12,5.4498437E12,2.6754605E12,1.9450078E12,1.1906328E12,8.454039E11,3.900168E11,8.0880756E11,6.889134E11,5.1633455E11,4.6176744E11,3.220868E11,1.5314767E11,2.2480683E11,7.468925E10,1.8543437E11,6.018816E11,3.9421837E11,4.1077755E11,9.328689E10,4.201015E11,1.26609785E11,3.857947E11,2.1179141E11,1.5576608E11,2.1436259E11,3.1024218E11,8.808458E10,2.017801E10,4.033275E10,0E0,0E0,0E0,0E0,0E0,0E0,0E0,0E0,0E0,0E0,0E0,0E0,0E0,0E0,0E0,0E0,0E0,0E0,0E0,0E0,0E0,0E0,0E0,0E0,0E0,0E0,0E0,0E0,0E0,0E0,0E0,0E0],"parents":[2147483647,0,0,1,1,2,2,3,3,4,4,5,5,6,6,7,7,8,8,9,9,10,10,11,11,12,12,13,13,14,14,15,15,16,16,17,17,18,18,19,19,20,20,21,21,22,22,23,23,24,24,25,25,26,26,27,27,28,28,29,29,30,30],"right_children":[2,4,6,8,10,12,14,16,18,20,22,24,26,28,30,32,34,36,38,40,42,44,46,48,50,52,54,56,58,60,62,-1,-1,-1,-1,-1,-1,-1,-1,-1,-1,-1,-1,-1,-1,-1,-1,-1,-1,-1,-1,-1,-1,-1,-1,-1,-1,-1,-1,-1,-1,-1,-1],"split_conditions":[-4.1848943E-1,7.0803266E4,5.7721555E-1,-1.5326077E0,1.12364586E5,3.6200732E-1,-1.2413515E-2,3.480109E4,-7.781272E-1,-8.950798E-1,1.145942E0,1.3548866E5,7.480104E-1,8.9087427E-1,3.6200732E-1,5.535397E-1,1.349492E0,4.3659777E4,-1.7222381E0,-3.1891568E0,-7.5622016E-1,1.5917602E5,1.2927293E5,8.4248185E-2,-3.3022004E-1,1.2326124E5,4.0497848E4,1.12364586E5,-7.2784525E-1,3.8936164E4,3.8936164E4,-1.9837463E1,6.84068E2,1.0575566E3,1.3911088E3,4.2995758E2,7.798339E2,2.0005043E3,2.4235405E2,1.1374804E4,1.7151135E3,1.2228134E3,6.64281E2,1.9942762E3,3.1981873E3,2.2194377E3,3.7317776E3,-1.331657E2,-3.9617468E2,6.728773E3,1.2941161E3,-9.716058E1,1.5641536E3,-5.868794E1,2.5621796E2,-6.200846E2,2.2117227E3,-7.963771E2,-6.658304E2,-5.519688E2,-4.3180084E2,-3.3134448E2,-6.186099E1],"split_indices":[9,6,9,9,6,8,8,6,9,9,8,6,8,9,8,8,8,6,8,8,9,6,6,9,9,6,6,6,8,6,6,0,0,0,0,0,0,0,0,0,0,0,0,0,0,0,0,0,0,0,0,0,0,0,0,0,0,0,0,0,0,0,0],"split_type":[0,0,0,0,0,0,0,0,0,0,0,0,0,0,0,0,0,0,0,0,0,0,0,0,0,0,0,0,0,0,0,0,0,0,0,0,0,0,0,0,0,0,0,0,0,0,0,0,0,0,0,0,0,0,0,0,0,0,0,0,0,0,0],"sum_hessian":[1.26317E5,4.244E4,8.3877E4,3.6804E4,5.636E3,4.4829E4,3.9048E4,7.633E3,2.9171E4,3.91E3,1.726E3,2.344E4,2.1389E4,3.1004E4,8.044E3,1.193E3,6.44E3,1.7938E4,1.1233E4,2.724E3,1.186E3,1.259E3,4.67E2,2.3334E4,1.06E2,1.2805E4,8.584E3,9.089E3,2.1915E4,5.502E3,2.542E3,1.56E2,1.037E3,4.014E3,2.426E3,9.981E3,7.957E3,1.15E2,1.1118E4,3E0,2.721E3,4.19E2,7.67E2,8.82E2,3.77E2,6.3E1,4.04E2,7.311E3,1.6023E4,6E0,1E2,1.2755E4,5E1,2.979E3,5.605E3,9.055E3,3.4E1,1.5129E4,6.786E3,1.999E3,3.503E3,6.83E2,1.859E3],"tree_param":{"num_deleted":"0","num_feature":"10","num_nodes":"63","size_leaf_vector":"1"}},{"base_weights":[2.2686102E0,2.470743E4,-1.225711E4,1.9309195E4,5.9683113E4,-1.8377656E4,-2.0430438E3,3.527847E4,1.5055026E4,4.8174547E4,8.808242E4,-1.1364158E4,-2.294677E4,-4.968145E3,4.5829478E3,1.9144602E4,3.826381E4,1.3646725E4,3.4684105E4,5.6467266E4,2.8605336E4,7.774166E4,1.1566918E5,-1.1954206E4,4.473189E4,-2.4563486E4,-1.8304055E4,-7.3869805E3,7.151974E2,1.1273413E3,1.1745878E4,-1.9246183E1,6.635658E2,1.0258379E3,1.3493927E3,2.803746E2,5.707897E2,8.3750476E2,1.2260565E3,1.1118872E4,1.6799338E3,1.2066786E3,6.569495E2,1.9657002E3,3.1078894E3,1.5809478E3,3.6201006E3,-1.2896835E2,-4.3696863E2,9.453527E2,4.3504207E4,-6.912383E2,-7.7725146E2,-6.2529626E2,-5.155128E2,-8.664354E1,-2.7580167E2,2.687374E2,-5.559805E1,1.3035942E2,-8.07466E1,3.3944052E2,4.3841543E3],"categories":[],"categories_nodes":[],"categories_segments":[],"categories_sizes":[],"default_left":[0,0,0,0,0,0,0,0,0,0,0,0,0,0,0,0,0,0,0,0,0,0,0,0,0,0,0,0,0,0,0,0,0,0,0,0,0,0,0,0,0,0,0,0,0,0,0,0,0,0,0,0,0,0,0,0,0,0,0,0,0,0,0],"id":8,"left_children":[1,3,5,7,9,11,13,15,17,19,21,23,25,27,29,31,33,35,37,39,41,43,45,47,49,51,53,55,57,59,61,-1,-1,-1,-1,-1,-1,-1,-1,-1,-1,-1,-1,-1,-1,-1,-1,-1,-1,-1,-1,-1,-1,-1,-1,-1,-1,-1,-1,-1,-1,-1,-1],"loss_changes":[3.8258226E13,7.908727E12,5.277847E12,2.4651382E12,1.8263614E12,1.6914517E12,6.131626E11,3.6695966E11,7.918222E11,6.4556525E11,4.514319E11,6.898951E11,2.3947903E11,3.0171224E11,2.3981146E11,7.028002E10,1.7448514E11,6.186011E11,7.913105E10,3.9221776E11,9.176292E10,3.650266E11,1.315706E11,4.1197345E11,3.986095E12,4.7933555E10,2.3138402E10,1.2508522E11,1.3875103E11,8.034554E10,1.810604E11,0E0,0E0,0E0,0E0,0E0,0E0,0E0,0E0,0E0,0E0,0E0,0E0,0E0,0E0,0E0,0E0,0E0,0E0,0E0,0E0,0E0,0E0,0E0,0E0,0E0,0E0,0E0,0E0,0E0,0E0,0E0,0E0],"parents":[2147483647,0,0,1,1,2,2,3,3,4,4,5,5,6,6,7,7,8,8,9,9,10,10,11,11,12,12,13,13,14,14,15,15,16,16,17,17,18,18,19,19,20,20,21,21,22,22,23,23,24,24,25,25,26,26,27,27,28,28,29,29,30,30],"right_children":[2,4,6,8,10,12,14,16,18,20,22,24,26,28,30,32,34,36,38,40,42,44,46,48,50,52,54,56,58,60,62,-1,-1,-1,-1,-1,-1,-1,-1,-1,-1,-1,-1,-1,-1,-1,-1,-1,-1,-1,-1,-1,-1,-1,-1,-1,-1,-1,-1,-1,-1,-1,-1],"split_conditions":[-4.330066E-1,7.0803266E4,1.7337039E-1,-1.5326077E0,1.1675101E5,6.478436E-1,7.480104E-1,3.480109E4,1.349492E0,-8.950798E-1,1.145942E0,8.108916E4,-3.755887E-1,4.8147535E4,4.245477E4,5.535397E-1,1.349492E0,4.3659777E4,4.1114516E4,-3.1891568E0,-7.5622016E-1,1.5917602E5,1.2927293E5,8.4248185E-2,6.4360154E-1,1.2024196E0,3.480109E4,-2.2007592E-2,-1.5938985E-1,-3.255508E-2,1.5917602E5,-1.9246183E1,6.635658E2,1.0258379E3,1.3493927E3,2.803746E2,5.707897E2,8.3750476E2,1.2260565E3,1.1118872E4,1.6799338E3,1.2066786E3,6.569495E2,1.9657002E3,3.1078894E3,1.5809478E3,3.6201006E3,-1.2896835E2,-4.3696863E2,9.453527E2,4.3504207E4,-6.912383E2,-7.7725146E2,-6.2529626E2,-5.155128E2,-8.664354E1,-2.7580167E2,2.687374E2,-5.559805E1,1.3035942E2,-8.07466E1,3.3944052E2,4.3841543E3],"split_indices":[9,6,8,9,6,9,8,6,8,9,8,6,8,6,6,8,8,6,6,8,9,6,6,9,9,9,6,9,9,9,6,0,0,0,0,0,0,0,0,0,0,0,0,0,0,0,0,0,0,0,0,0,0,0,0,0,0,0,0,0,0,0,0],"split_type":[0,0,0,0,0,0,0,0,0,0,0,0,0,0,0,0,0,0,0,0,0,0,0,0,0,0,0,0,0,0,0,0,0,0,0,0,0,0,0,0,0,0,0,0,0,0,0,0,0,0,0,0,0,0,0,0,0,0,0,0,0,0,0],"sum_hessian":[1.26317E5,4.1893E4,8.4424E4,3.6293E4,5.6E3,5.279E4,3.1634E4,7.633E3,2.866E4,3.987E3,1.613E3,2.0826E4,3.1964E4,2.1946E4,9.688E3,1.193E3,6.44E3,2.6743E4,1.917E3,2.799E3,1.188E3,1.176E3,4.37E2,2.061E4,2.16E2,2.3705E4,8.259E3,1.5394E4,6.552E3,6.536E3,3.152E3,1.56E2,1.037E3,4.014E3,2.426E3,1.4863E4,1.188E4,9.18E2,9.99E2,3E0,2.796E3,4.33E2,7.55E2,8.01E2,3.75E2,3.3E1,4.04E2,5.243E3,1.5367E4,2.15E2,1E0,1.1128E4,1.2577E4,2.523E3,5.736E3,4.411E3,1.0983E4,1.556E3,4.996E3,3.547E3,2.989E3,3.143E3,9E0],"tree_param":{"num_deleted":"0","num_feature":"10","num_nodes":"63","size_leaf_vector":"1"}},{"base_weights":[2.808062E0,2.3966943E4,-1.1888854E4,1.8730084E4,5.7897074E4,-1.7825545E4,-1.9816068E3,3.0581656E4,1.3282068E4,4.6224555E4,8.4296555E4,-1.1021126E4,-2.225845E4,-4.819108E3,4.4459517E3,2.4230535E4,3.8444586E4,7.8187363E3,1.6980629E4,5.424925E4,2.7366096E4,1.1120784E5,7.393653E4,-1.1595606E4,4.3594773E4,-2.3826645E4,-1.7755072E4,-7.165395E3,6.937735E2,1.0935283E3,1.1394999E4,2.6576337E2,8.0396686E2,1.0184873E3,1.442019E3,4.229827E1,3.644422E2,2.4152136E3,4.950102E2,1.0868697E4,1.6132996E3,1.1501022E3,6.338347E2,2.501659E3,3.5868438E3,1.9336202E3,2.952128E3,-1.2510003E2,-4.238604E2,9.171235E2,4.2851645E4,-6.7050305E2,-7.5393585E2,-6.065448E2,-5.0005017E2,-8.40448E1,-2.6752838E2,2.6068042E2,-5.393045E1,-1.0717441E2,1.100996E2,3.292605E2,4.265782E3],"categories":[],"categories_nodes":[],"categories_segments":[],"categories_sizes":[],"default_left":[0,0,0,0,0,0,0,0,0,0,0,0,0,0,0,0,0,0,0,0,0,0,0,0,0,0,0,0,0,0,0,0,0,0,0,0,0,0,0,0,0,0,0,0,0,0,0,0,0,0,0,0,0,0,0,0,0,0,0,0,0,0,0],"id":9,"left_children":[1,3,5,7,9,11,13,15,17,19,21,23,25,27,29,31,33,35,37,39,41,43,45,47,49,51,53,55,57,59,61,-1,-1,-1,-1,-1,-1,-1,-1,-1,-1,-1,-1,-1,-1,-1,-1,-1,-1,-1,-1,-1,-1,-1,-1,-1,-1,-1,-1,-1,-1,-1,-1],"loss_changes":[3.5997555E13,7.442952E12,4.9655275E12,2.3430085E12,1.7220428E12,1.5921085E12,5.76987E11,5.698151E11,5.0232138E11,5.86597E11,4.702014E11,6.539693E11,2.2531906E11,2.8388504E11,2.2570392E11,2.4947458E11,2.191807E11,2.7855094E11,4.5105965E11,3.7722155E11,7.8714765E10,1.0041531E11,2.8182105E11,3.876263E11,3.8700434E12,4.510135E10,2.1772894E10,1.1769309E11,1.30555404E11,7.859947E10,1.715043E11,0E0,0E0,0E0,0E0,0E0,0E0,0E0,0E0,0E0,0E0,0E0,0E0,0E0,0E0,0E0,0E0,0E0,0E0,0E0,0E0,0E0,0E0,0E0,0E0,0E0,0E0,0E0,0E0,0E0,0E0,0E0,0E0],"parents":[2147483647,0,0,1,1,2,2,3,3,4,4,5,5,6,6,7,7,8,8,9,9,10,10,11,11,12,12,13,13,14,14,15,15,16,16,17,17,18,18,19,19,20,20,21,21,22,22,23,23,24,24,25,25,26,26,27,27,28,28,29,29,30,30],"right_children":[2,4,6,8,10,12,14,16,18,20,22,24,26,28,30,32,34,36,38,40,42,44,46,48,50,52,54,56,58,60,62,-1,-1,-1,-1,-1,-1,-1,-1,-1,-1,-1,-1,-1,-1,-1,-1,-1,-1,-1,-1,-1,-1,-1,-1,-1,-1,-1,-1,-1,-1,-1,-1],"split_conditions":[-4.330066E-1,7.0803266E4,1.7337039E-1,-1.3285264E0,1.12364586E5,6.478436E-1,7.480104E-1,4.245477E4,4.1004855E4,-8.950798E-1,-1.7898648E0,8.108916E4,-3.755887E-1,4.8147535E4,4.245477E4,2.924656E4,1.349492E0,9.454631E-1,-1.7222381E0,-3.1891568E0,-7.5622016E-1,1.2927293E5,1.5917602E5,8.4248185E-2,6.4360154E-1,1.2024196E0,3.480109E4,-2.2007592E-2,-1.5938985E-1,3.480109E4,1.5917602E5,2.6576337E2,8.0396686E2,1.0184873E3,1.442019E3,4.229827E1,3.644422E2,2.4152136E3,4.950102E2,1.0868697E4,1.6132996E3,1.1501022E3,6.338347E2,2.501659E3,3.5868438E3,1.9336202E3,2.952128E3,-1.2510003E2,-4.238604E2,9.171235E2,4.2851645E4,-6.7050305E2,-7.5393585E2,-6.065448E2,-5.0005017E2,-8.40448E1,-2.6752838E2,2.6068042E2,-5.393045E1,-1.0717441E2,1.100996E2,3.292605E2,4.265782E3],"split_indices":[9,6,8,9,6,9,8,6,6,9,9,6,8,6,6,6,8,8,8,8,9,6,6,9,9,9,6,9,9,6,6,0,0,0,0,0,0,0,0,0,0,0,0,0,0,0,0,0,0,0,0,0,0,0,0,0,0,0,0,0,0,0,0],"split_type":[0,0,0,0,0,0,0,0,0,0,0,0,0,0,0,0,0,0,0,0,0,0,0,0,0,0,0,0,0,0,0,0,0,0,0,0,0,0,0,0,0,0,0,0,0,0,0,0,0,0,0,0,0,0,0,0,0,0,0,0,0,0,0],"sum_hessian":[1.26317E5,4.1893E4,8.4424E4,3.6293E4,5.6E3,5.279E4,3.1634E4,1.1428E4,2.4865E4,3.885E3,1.715E3,2.0826E4,3.1964E4,2.1946E4,9.688E3,6.324E3,5.104E3,1.0039E4,1.4826E4,2.724E3,1.161E3,4.74E2,1.241E3,2.061E4,2.16E2,2.3705E4,8.259E3,1.5394E4,6.552E3,6.536E3,3.152E3,9.06E2,5.418E3,3.482E3,1.622E3,4.048E3,5.991E3,1.1E2,1.4716E4,3E0,2.721E3,4.19E2,7.42E2,1.12E2,3.62E2,8.97E2,3.44E2,5.243E3,1.5367E4,2.15E2,1E0,1.1128E4,1.2577E4,2.523E3,5.736E3,4.411E3,1.0983E4,1.556E3,4.996E3,2.325E3,4.211E3,3.143E3,9E0],"tree_param":{"num_deleted":"0","num_feature":"10","num_nodes":"63","size_leaf_vector":"1"}},{"base_weights":[3.3351421E0,2.3024262E4,-1.1644905E4,1.7983115E4,5.593474E4,-4.0863345E3,-1.8854416E4,2.611786E4,1.0411534E4,4.4632254E4,8.1498195E4,2.5080693E3,-7.1257783E3,-2.132252E4,-1.0642586E4,3.3973402E4,2.0862613E4,-1.2895935E3,1.2213529E4,5.2626355E4,2.6242562E4,1.016769E5,6.819961E4,-6.3298936E3,4.936169E3,-7.4666255E3,4.2332434E4,-1.7243738E4,-2.2770719E4,-1.3982164E4,-4.0710664E3,5.448913E2,1.107985E3,4.9458426E2,7.928437E2,-2.5021338E2,6.437938E1,2.0439406E3,3.51013E2,1.0624151E4,1.5649183E3,1.1156813E3,6.0665564E2,1.088804E3,3.183459E3,8.383922E3,2.0074188E3,-4.083865E2,-1.0086013E2,1.3983304E2,2.0376211E3,-3.487812E2,-1.176016E2,3.735804E2,2.0248671E3,-5.2862646E2,1.8721464E3,-7.229173E2,-6.018655E2,-5.251413E2,-3.8801675E2,-1.340001E2,1.288602E3],"categories":[],"categories_nodes":[],"categories_segments":[],"categories_sizes":[],"default_left":[0,0,0,0,0,0,0,0,0,0,0,0,0,0,0,0,0,0,0,0,0,0,0,0,0,0,0,0,0,0,0,0,0,0,0,0,0,0,0,0,0,0,0,0,0,0,0,0,0,0,0,0,0,0,0,0,0,0,0,0,0,0,0],"id":10,"left_children":[1,3,5,7,9,11,13,15,17,19,21,23,25,27,29,31,33,35,37,39,41,43,45,47,49,51,53,55,57,59,61,-1,-1,-1,-1,-1,-1,-1,-1,-1,-1,-1,-1,-1,-1,-1,-1,-1,-1,-1,-1,-1,-1,-1,-1,-1,-1,-1,-1,-1,-1,-1,-1],"loss_changes":[3.3872853E13,7.0402336E12,4.5707354E12,2.2666543E12,1.6250642E12,8.207718E11,8.6986405E11,7.317299E11,4.0198734E11,5.735711E11,4.565028E11,2.7728737E11,4.7283752E11,1.945811E11,2.1771413E11,3.320038E11,2.5855525E11,6.1667254E10,4.7318145E11,3.6145044E11,7.748026E10,1.9464454E11,2.6486243E11,6.0152308E10,1.752896E11,4.1062603E11,1.435182E11,2.6102805E11,8.702552E10,2.4067178E10,6.241912E10,0E0,0E0,0E0,0E0,0E0,0E0,0E0,0E0,0E0,0E0,0E0,0E0,0E0,0E0,0E0,0E0,0E0,0E0,0E0,0E0,0E0,0E0,0E0,0E0,0E0,0E0,0E0,0E0,0E0,0E0,0E0,0E0],"parents":[2147483647,0,0,1,1,2,2,3,3,4,4,5,5,6,6,7,7,8,8,9,9,10,10,11,11,12,12,13,13,14,14,15,15,16,16,17,17,18,18,19,19,20,20,21,21,22,22,23,23,24,24,25,25,26,26,27,27,28,28,29,29,30,30],"right_children":[2,4,6,8,10,12,14,16,18,20,22,24,26,28,30,32,34,36,38,40,42,44,46,48,50,52,54,56,58,60,62,-1,-1,-1,-1,-1,-1,-1,-1,-1,-1,-1,-1,-1,-1,-1,-1,-1,-1,-1,-1,-1,-1,-1,-1,-1,-1,-1,-1,-1,-1,-1,-1],"split_conditions":[-4.1848943E-1,7.0803266E4,4.8190188E-1,-1.0672803E0,1.12364586E5,-7.5334206E-2,-1.2413515E-2,-1.566178E0,3.3277543E4,-8.950798E-1,-1.4786607E0,3.480109E4,1.2927293E5,7.966541E-1,3.6200732E-1,3.480109E4,4.3659777E4,2.6339422E4,-1.7222381E0,-3.1891568E0,-7.5622016E-1,-8.999788E-1,4.3344668E4,3.6200732E-1,1.3548866E5,1.7337039E-1,3.032822E-1,1.12364586E5,-7.2784525E-1,3.211317E4,1.12364586E5,5.448913E2,1.107985E3,4.9458426E2,7.928437E2,-2.5021338E2,6.437938E1,2.0439406E3,3.51013E2,1.0624151E4,1.5649183E3,1.1156813E3,6.0665564E2,1.088804E3,3.183459E3,8.383922E3,2.0074188E3,-4.083865E2,-1.0086013E2,1.3983304E2,2.0376211E3,-3.487812E2,-1.176016E2,3.735804E2,2.0248671E3,-5.2862646E2,1.8721464E3,-7.229173E2,-6.018655E2,-5.251413E2,-3.8801675E2,-1.340001E2,1.288602E3],"split_indices":[9,6,9,9,6,9,8,9,6,9,9,6,6,9,8,6,6,6,8,8,9,8,7,8,6,8,9,6,8,6,6,0,0,0,0,0,0,0,0,0,0,0,0,0,0,0,0,0,0,0,0,0,0,0,0,0,0,0,0,0,0,0,0],"split_type":[0,0,0,0,0,0,0,0,0,0,0,0,0,0,0,0,0,0,0,0,0,0,0,0,0,0,0,0,0,0,0,0,0,0,0,0,0,0,0,0,0,0,0,0,0,0,0,0,0,0,0,0,0,0,0,0,0,0,0,0,0,0,0],"sum_hessian":[1.26317E5,4.244E4,8.3877E4,3.6804E4,5.636E3,4.0948E4,4.2929E4,1.7741E4,1.9063E4,3.91E3,1.726E3,1.2919E4,2.8029E4,3.3007E4,9.922E3,7.109E3,1.0632E4,2.544E3,1.6519E4,2.724E3,1.186E3,6.83E2,1.043E3,2.784E3,1.0135E4,2.7838E4,1.91E2,8.652E3,2.4355E4,6.578E3,3.344E3,1.122E3,5.987E3,5.954E3,4.678E3,8.33E2,1.711E3,1.49E2,1.637E4,3E0,2.721E3,4.19E2,7.67E2,4.4E1,6.39E2,5E0,1.038E3,8.05E2,1.979E3,1.0092E4,4.3E1,1.2811E4,1.5027E4,8.8E1,1.03E2,8.612E3,4E1,1.6343E4,8.012E3,1.505E3,5.073E3,3.317E3,2.7E1],"tree_param":{"num_deleted":"0","num_feature":"10","num_nodes":"63","size_leaf_vector":"1"}},{"base_weights":[3.5328183E0,2.2554662E4,-1.1186956E4,1.7626055E4,5.448759E4,-1.6779094E4,-1.8547056E3,2.879945E4,1.248979E4,4.3963207E4,8.045831E4,-1.0369104E4,-2.095504E4,-4.5784546E3,4.3151753E3,2.2750244E4,3.628866E4,1.6291195E4,7.4744443E3,5.1538656E4,2.6086662E4,7.061933E4,1.0671409E5,-1.0913467E4,4.138321E4,-2.2438137E4,-1.6696049E4,-6.8290903E3,7.0967487E2,1.0953947E3,1.0989261E4,2.420197E2,7.5610754E2,9.583867E2,1.3675583E3,3.2070883E2,6.262577E2,2.0061968E3,2.0591412E2,1.0385107E4,1.5329662E3,1.1011237E3,5.9870844E2,1.7732985E3,2.8494229E3,1.3913875E3,3.3454717E3,-1.170371E2,-3.991659E2,8.566811E2,4.2180785E4,-6.3126685E2,-7.1014355E2,-5.717535E2,-4.6961392E2,-8.208215E1,-2.5417596E2,2.4776753E2,-4.9281384E1,1.24439644E2,-7.58174E1,3.1757977E2,4.1003286E3],"categories":[],"categories_nodes":[],"categories_segments":[],"categories_sizes":[],"default_left":[0,0,0,0,0,0,0,0,0,0,0,0,0,0,0,0,0,0,0,0,0,0,0,0,0,0,0,0,0,0,0,0,0,0,0,0,0,0,0,0,0,0,0,0,0,0,0,0,0,0,0,0,0,0,0,0,0,0,0,0,0,0,0],"id":11,"left_children":[1,3,5,7,9,11,13,15,17,19,21,23,25,27,29,31,33,35,37,39,41,43,45,47,49,51,53,55,57,59,61,-1,-1,-1,-1,-1,-1,-1,-1,-1,-1,-1,-1,-1,-1,-1,-1,-1,-1,-1,-1,-1,-1,-1,-1,-1,-1,-1,-1,-1,-1,-1,-1],"loss_changes":[3.1877631E13,6.592523E12,4.405876E12,2.0825349E12,1.52736E12,1.4128796E12,5.3165248E11,5.169511E11,4.739574E11,5.3872165E11,4.094102E11,5.8719155E11,2.0153316E11,2.612104E11,2.081958E11,2.276372E11,2.0463223E11,3.629221E11,3.8847775E11,3.4511677E11,7.665005E10,3.2439848E11,1.2171765E11,3.4567068E11,3.7583286E12,4.03146E10,2.0039336E10,1.03533445E11,1.1638663E11,7.229958E10,1.5836617E11,0E0,0E0,0E0,0E0,0E0,0E0,0E0,0E0,0E0,0E0,0E0,0E0,0E0,0E0,0E0,0E0,0E0,0E0,0E0,0E0,0E0,0E0,0E0,0E0,0E0,0E0,0E0,0E0,0E0,0E0,0E0,0E0],"parents":[2147483647,0,0,1,1,2,2,3,3,4,4,5,5,6,6,7,7,8,8,9,9,10,10,11,11,12,12,13,13,14,14,15,15,16,16,17,17,18,18,19,19,20,20,21,21,22,22,23,23,24,24,25,25,26,26,27,27,28,28,29,29,30,30],"right_children":[2,4,6,8,10,12,14,16,18,20,22,24,26,28,30,32,34,36,38,40,42,44,46,48,50,52,54,56,58,60,62,-1,-1,-1,-1,-1,-1,-1,-1,-1,-1,-1,-1,-1,-1,-1,-1,-1,-1,-1,-1,-1,-1,-1,-1,-1,-1,-1,-1,-1,-1,-1,-1],"split_conditions":[-4.330066E-1,7.0803266E4,1.7337039E-1,-1.3285264E0,1.1675101E5,6.478436E-1,7.480104E-1,4.245477E4,-7.781272E-1,-8.950798E-1,1.145942E0,8.108916E4,-3.755887E-1,4.8147535E4,4.245477E4,2.924656E4,1.349492E0,4.1836754E4,-1.7222381E0,-3.1891568E0,-7.5622016E-1,1.5917602E5,1.2927293E5,8.4248185E-2,6.4360154E-1,1.2024196E0,3.480109E4,-2.2007592E-2,-1.5938985E-1,-3.255508E-2,1.5917602E5,2.420197E2,7.5610754E2,9.583867E2,1.3675583E3,3.2070883E2,6.262577E2,2.0061968E3,2.0591412E2,1.0385107E4,1.5329662E3,1.1011237E3,5.9870844E2,1.7732985E3,2.8494229E3,1.3913875E3,3.3454717E3,-1.170371E2,-3.991659E2,8.566811E2,4.2180785E4,-6.3126685E2,-7.1014355E2,-5.717535E2,-4.6961392E2,-8.208215E1,-2.5417596E2,2.4776753E2,-4.9281384E1,1.24439644E2,-7.58174E1,3.1757977E2,4.1003286E3],"split_indices":[9,6,8,9,6,9,8,6,9,9,8,6,8,6,6,6,8,6,8,8,9,6,6,9,9,9,6,9,9,9,6,0,0,0,0,0,0,0,0,0,0,0,0,0,0,0,0,0,0,0,0,0,0,0,0,0,0,0,0,0,0,0,0],"split_type":[0,0,0,0,0,0,0,0,0,0,0,0,0,0,0,0,0,0,0,0,0,0,0,0,0,0,0,0,0,0,0,0,0,0,0,0,0,0,0,0,0,0,0,0,0,0,0,0,0,0,0,0,0,0,0,0,0,0,0,0,0,0,0],"sum_hessian":[1.26317E5,4.1893E4,8.4424E4,3.6293E4,5.6E3,5.279E4,3.1634E4,1.1428E4,2.4865E4,3.987E3,1.613E3,2.0826E4,3.1964E4,2.1946E4,9.688E3,6.324E3,5.104E3,1.4143E4,1.0722E4,2.799E3,1.188E3,1.176E3,4.37E2,2.061E4,2.16E2,2.3705E4,8.259E3,1.5394E4,6.552E3,6.536E3,3.152E3,9.06E2,5.418E3,3.482E3,1.622E3,6.367E3,7.776E3,1.08E2,1.0614E4,3E0,2.796E3,4.33E2,7.55E2,8.01E2,3.75E2,3.3E1,4.04E2,5.243E3,1.5367E4,2.15E2,1E0,1.1128E4,1.2577E4,2.523E3,5.736E3,4.411E3,1.0983E4,1.556E3,4.996E3,3.547E3,2.989E3,3.143E3,9E0],"tree_param":{"num_deleted":"0","num_feature":"10","num_nodes":"63","size_leaf_vector":"1"}},{"base_weights":[4.011689E0,2.0163469E4,-1.1776257E4,1.564614E4,5.1224613E4,-1.6593242E4,-2.7508875E3,2.460135E4,8.717909E3,4.066285E4,7.591534E4,-1.0631753E4,-2.0326463E4,-5.0842476E3,3.4004194E3,2.1130889E4,3.581054E4,-9.5612045E1,1.1144904E4,4.758433E4,1.890458E4,9.608293E4,6.3166684E4,-1.1098322E4,3.566076E4,-2.1765049E4,-1.6195294E4,-7.5304307E3,-1.3022671E3,3.2494546E3,1.4684489E5,8.6882104E2,5.370832E2,9.4839703E2,1.3700216E3,-2.4711641E2,6.1637783E1,1.7974391E3,3.21029E2,1.5487971E3,6.827045E2,6.170857E2,4.781284E1,9.966439E2,3.0105823E3,8.129991E3,1.8587078E3,-1.4571904E2,-3.8719174E2,6.5763025E2,4.1548074E4,-6.1233057E2,-6.8884094E2,-5.5460767E2,-4.5552798E2,-4.33812E2,-2.0162248E2,-5.2433823E1,8.9953973E2,-1.9257427E1,2.4980338E2,8.1463394E3,5.314833E2],"categories":[],"categories_nodes":[],"categories_segments":[],"categories_sizes":[],"default_left":[0,0,0,0,0,0,0,0,0,0,0,0,0,0,0,0,0,0,0,0,0,0,0,0,0,0,0,0,0,0,0,0,0,0,0,0,0,0,0,0,0,0,0,0,0,0,0,0,0,0,0,0,0,0,0,0,0,0,0,0,0,0,0],"id":12,"left_children":[1,3,5,7,9,11,13,15,17,19,21,23,25,27,29,31,33,35,37,39,41,43,45,47,49,51,53,55,57,59,61,-1,-1,-1,-1,-1,-1,-1,-1,-1,-1,-1,-1,-1,-1,-1,-1,-1,-1,-1,-1,-1,-1,-1,-1,-1,-1,-1,-1,-1,-1,-1,-1],"loss_changes":[2.9998717E13,6.536399E12,3.466179E12,2.5234778E12,1.5394123E12,1.1567156E12,3.982616E11,6.894251E11,4.9058913E11,6.2333544E11,4.4927287E11,4.3280105E11,1.896182E11,1.8609167E11,1.6477274E11,3.4196528E11,1.720299E11,8.67247E10,3.887032E11,3.1435312E11,2.8846391E10,1.802565E11,2.5676192E11,2.2360123E11,3.6773825E12,3.793119E10,1.8856804E10,6.8441997E10,1.10199734E11,1.5063838E11,1.2400791E11,0E0,0E0,0E0,0E0,0E0,0E0,0E0,0E0,0E0,0E0,0E0,0E0,0E0,0E0,0E0,0E0,0E0,0E0,0E0,0E0,0E0,0E0,0E0,0E0,0E0,0E0,0E0,0E0,0E0,0E0,0E0,0E0],"parents":[2147483647,0,0,1,1,2,2,3,3,4,4,5,5,6,6,7,7,8,8,9,9,10,10,11,11,12,12,13,13,14,14,15,15,16,16,17,17,18,18,19,19,20,20,21,21,22,22,23,23,24,24,25,25,26,26,27,27,28,28,29,29,30,30],"right_children":[2,4,6,8,10,12,14,16,18,20,22,24,26,28,30,32,34,36,38,40,42,44,46,48,50,52,54,56,58,60,62,-1,-1,-1,-1,-1,-1,-1,-1,-1,-1,-1,-1,-1,-1,-1,-1,-1,-1,-1,-1,-1,-1,-1,-1,-1,-1,-1,-1,-1,-1,-1,-1],"split_conditions":[-3.0547446E-1,7.0803266E4,1.7337039E-1,-1.0672803E0,1.12364586E5,6.478436E-1,7.480104E-1,1.349492E0,3.480109E4,-7.5622016E-1,-1.4786607E0,8.108916E4,-3.755887E-1,4.245477E4,1.5917602E5,-1.6301488E0,5.12444E4,2.6339422E4,-1.7222381E0,4.415097E4,1E0,-8.999788E-1,4.3344668E4,8.4248185E-2,6.4360154E-1,1.2024196E0,3.480109E4,2.9147812E4,1.1675101E5,4.1836754E4,3.778101E-1,8.6882104E2,5.370832E2,9.4839703E2,1.3700216E3,-2.4711641E2,6.1637783E1,1.7974391E3,3.21029E2,1.5487971E3,6.827045E2,6.170857E2,4.781284E1,9.966439E2,3.0105823E3,8.129991E3,1.8587078E3,-1.4571904E2,-3.8719174E2,6.5763025E2,4.1548074E4,-6.1233057E2,-6.8884094E2,-5.5460767E2,-4.5552798E2,-4.33812E2,-2.0162248E2,-5.2433823E1,8.9953973E2,-1.9257427E1,2.4980338E2,8.1463394E3,5.314833E2],"split_indices":[9,6,8,9,6,9,8,8,6,9,9,6,8,6,6,9,6,6,8,7,2,8,7,9,9,9,6,6,6,6,9,0,0,0,0,0,0,0,0,0,0,0,0,0,0,0,0,0,0,0,0,0,0,0,0,0,0,0,0,0,0,0,0],"split_type":[0,0,0,0,0,0,0,0,0,0,0,0,0,0,0,0,0,0,0,0,0,0,0,0,0,0,0,0,0,0,0,0,0,0,0,0,0,0,0,0,0,0,0,0,0,0,0,0,0,0,0,0,0,0,0,0,0,0,0,0,0,0,0],"sum_hessian":[1.26317E5,4.6589E4,7.9728E4,4.0675E4,5.914E3,5.1983E4,2.7745E4,1.7741E4,2.2934E4,4.144E3,1.77E3,2.0019E4,3.1964E4,2.0115E4,7.63E3,1.3549E4,4.192E3,4.952E3,1.7982E4,3.143E3,1.001E3,6.83E2,1.087E3,1.982E4,1.99E2,2.3705E4,8.259E3,1.2214E4,7.901E3,7.623E3,7E0,3.953E3,9.596E3,2.943E3,1.249E3,1.034E3,3.918E3,1.61E2,1.7821E4,2.702E3,4.41E2,9.13E2,8.8E1,4.4E1,6.39E2,5E0,1.082E3,4.453E3,1.5367E4,1.98E2,1E0,1.1128E4,1.2577E4,2.523E3,5.736E3,1.276E3,1.0938E4,7.791E3,1.1E2,4.316E3,3.307E3,3E0,4E0],"tree_param":{"num_deleted":"0","num_feature":"10","num_nodes":"63","size_leaf_vector":"1"}},{"base_weights":[4.453788E0,2.1238613E4,-1.0532519E4,1.660195E4,5.128001E4,-3.5963875E3,-1.7236717E4,3.1142375E4,1.3059066E4,4.1357184E4,7.576636E4,-6.671561E3,2.1960706E3,-1.9480252E4,-9.772052E3,1.6258048E4,3.3928605E4,1.1686232E4,3.1073691E4,6.1563785E4,3.500071E4,6.6318195E4,1.0098263E5,-7.073399E3,3.5336254E4,-1.1880815E3,6.1922065E3,-1.5747396E4,-2.080563E4,-1.2844314E4,-3.726553E3,-1.2693234E2,5.7469934E2,1.0891829E3,6.901319E2,2.3449847E2,4.9677332E2,7.29957E2,1.1165428E3,1.4555862E4,1.8048801E3,1.2110593E3,5.627493E2,1.6559315E3,2.695847E3,2.8319023E3,4.382025E3,-9.2748405E1,-2.935143E2,6.15044E2,1.6683881E3,-1.0529344E2,1.0215612E2,5.3608757E1,2.851683E2,2.204596E3,-4.819911E2,-6.608419E2,-5.492895E2,-5.3069574E2,-3.6548587E2,-1.23024254E2,1.2226753E3],"categories":[],"categories_nodes":[],"categories_segments":[],"categories_sizes":[],"default_left":[0,0,0,0,0,0,0,0,0,0,0,0,0,0,0,0,0,0,0,0,0,0,0,0,0,0,0,0,0,0,0,0,0,0,0,0,0,0,0,0,0,0,0,0,0,0,0,0,0,0,0,0,0,0,0,0,0,0,0,0,0,0,0],"id":13,"left_children":[1,3,5,7,9,11,13,15,17,19,21,23,25,27,29,31,33,35,37,39,41,43,45,47,49,51,53,55,57,59,61,-1,-1,-1,-1,-1,-1,-1,-1,-1,-1,-1,-1,-1,-1,-1,-1,-1,-1,-1,-1,-1,-1,-1,-1,-1,-1,-1,-1,-1,-1,-1,-1],"loss_changes":[2.8263089E13,5.834644E12,3.9258014E12,1.8692807E12,1.3577633E12,7.391752E11,7.187695E11,2.9430802E11,7.214145E11,5.1007455E11,3.7783444E11,4.578079E11,1.9462449E11,1.6297807E11,1.8425564E11,6.6775745E10,1.5468646E11,5.1124974E11,8.467697E10,5.36468E11,2.6394598E11,3.031947E11,1.1626401E11,2.8974226E11,7.616551E10,8.31183E10,9.630445E10,2.4747272E11,7.391098E10,2.0870857E10,5.5854002E10,0E0,0E0,0E0,0E0,0E0,0E0,0E0,0E0,0E0,0E0,0E0,0E0,0E0,0E0,0E0,0E0,0E0,0E0,0E0,0E0,0E0,0E0,0E0,0E0,0E0,0E0,0E0,0E0,0E0,0E0,0E0,0E0],"parents":[2147483647,0,0,1,1,2,2,3,3,4,4,5,5,6,6,7,7,8,8,9,9,10,10,11,11,12,12,13,13,14,14,15,15,16,16,17,17,18,18,19,19,20,20,21,21,22,22,23,23,24,24,25,25,26,26,27,27,28,28,29,29,30,30],"right_children":[2,4,6,8,10,12,14,16,18,20,22,24,26,28,30,32,34,36,38,40,42,44,46,48,50,52,54,56,58,60,62,-1,-1,-1,-1,-1,-1,-1,-1,-1,-1,-1,-1,-1,-1,-1,-1,-1,-1,-1,-1,-1,-1,-1,-1,-1,-1,-1,-1,-1,-1,-1,-1],"split_conditions":[-4.330066E-1,7.0803266E4,4.8190188E-1,-1.566178E0,1.1675101E5,5.535397E-1,-1.2413515E-2,3.480109E4,1.349492E0,-1.6742684E0,1.145942E0,1.1675101E5,4.1836754E4,7.966541E-1,3.6200732E-1,5.535397E-1,5.5473453E4,4.3659777E4,4.1114516E4,-3.1891568E0,-7.5622016E-1,1.5917602E5,-9.892999E-1,8.4248185E-2,1.3548866E5,9.454631E-1,7.480104E-1,-3.3238213E0,-7.2784525E-1,2.9147812E4,1.12364586E5,-1.2693234E2,5.7469934E2,1.0891829E3,6.901319E2,2.3449847E2,4.9677332E2,7.29957E2,1.1165428E3,1.4555862E4,1.8048801E3,1.2110593E3,5.627493E2,1.6559315E3,2.695847E3,2.8319023E3,4.382025E3,-9.2748405E1,-2.935143E2,6.15044E2,1.6683881E3,-1.0529344E2,1.0215612E2,5.3608757E1,2.851683E2,2.204596E3,-4.819911E2,-6.608419E2,-5.492895E2,-5.3069574E2,-3.6548587E2,-1.23024254E2,1.2226753E3],"split_indices":[9,6,9,9,6,8,8,6,8,9,8,6,6,9,8,8,7,6,6,8,9,6,9,9,6,8,8,8,8,6,6,0,0,0,0,0,0,0,0,0,0,0,0,0,0,0,0,0,0,0,0,0,0,0,0,0,0,0,0,0,0,0,0],"split_type":[0,0,0,0,0,0,0,0,0,0,0,0,0,0,0,0,0,0,0,0,0,0,0,0,0,0,0,0,0,0,0,0,0,0,0,0,0,0,0,0,0,0,0,0,0,0,0,0,0,0,0,0,0,0,0,0,0,0,0,0,0,0,0],"sum_hessian":[1.26317E5,4.1893E4,8.4424E4,3.6293E4,5.6E3,4.1495E4,4.2929E4,7.109E3,2.9184E4,3.987E3,1.613E3,2.7105E4,1.439E4,3.3007E4,9.922E3,1.122E3,5.987E3,2.7119E4,2.065E3,9.52E2,3.035E3,1.176E3,4.37E2,2.6849E4,2.56E2,7.792E3,6.598E3,8.652E3,2.4355E4,6.578E3,3.344E3,1.39E2,9.83E2,4.915E3,1.072E3,1.5117E4,1.2002E4,9.87E2,1.078E3,2E0,9.5E2,2.28E3,7.55E2,8.01E2,3.75E2,3.84E2,5.3E1,1.0875E4,1.5974E4,1.49E2,1.07E2,5.176E3,2.616E3,2.833E3,3.765E3,3E1,8.622E3,1.6343E4,8.012E3,7.87E2,5.791E3,3.317E3,2.7E1],"tree_param":{"num_deleted":"0","num_feature":"10","num_nodes":"63","size_leaf_vector":"1"}},{"base_weights":[4.616706E0,2.060228E4,-1.0216508E4,1.6104022E4,4.9746914E4,-3.4884412E3,-1.6719598E4,2.3228139E4,9.290452E3,3.9689016E4,7.249473E4,-7.6472544E3,5.549111E2,-1.8895828E4,-9.47887E3,1.995699E4,3.3793562E4,-1.6997072E3,1.0992613E4,4.6674523E4,2.3273188E4,9.698422E4,6.3070406E4,-9.591444E3,1.8068186E3,-2.6384563E3,4.144734E3,-1.5274774E4,-2.018151E4,-1.2459123E4,-3.6144285E3,3.3260712E2,6.7741943E2,8.923425E2,1.2990684E3,-2.5154622E2,4.6979164E1,1.9899412E3,3.1474304E2,9.889174E3,1.3872467E3,9.2100354E2,5.066115E2,2.1451506E3,3.1394573E3,1.6331599E3,2.5606543E3,-1.620479E2,-3.518745E2,9.942057E0,1.5243164E3,-1.3389447E2,9.90926E1,1.12837166E2,1.4682433E3,2.1405916E3,-4.67533E2,-6.410179E2,-5.3281287E2,-5.14795E2,-3.5452322E2,-1.1933467E2,1.187305E3],"categories":[],"categories_nodes":[],"categories_segments":[],"categories_sizes":[],"default_left":[0,0,0,0,0,0,0,0,0,0,0,0,0,0,0,0,0,0,0,0,0,0,0,0,0,0,0,0,0,0,0,0,0,0,0,0,0,0,0,0,0,0,0,0,0,0,0,0,0,0,0,0,0,0,0,0,0,0,0,0,0,0,0],"id":14,"left_children":[1,3,5,7,9,11,13,15,17,19,21,23,25,27,29,31,33,35,37,39,41,43,45,47,49,51,53,55,57,59,61,-1,-1,-1,-1,-1,-1,-1,-1,-1,-1,-1,-1,-1,-1,-1,-1,-1,-1,-1,-1,-1,-1,-1,-1,-1,-1,-1,-1,-1,-1,-1,-1],"loss_changes":[2.65941E13,5.4915037E12,3.6938082E12,1.7615186E12,1.2786063E12,6.977821E11,6.762896E11,6.1250784E11,3.4709006E11,4.4453226E11,3.8992976E11,3.76009E11,2.4121701E11,1.5336158E11,1.7338434E11,3.1508608E11,1.6013853E11,5.435201E10,4.4486086E11,3.1860772E11,5.4594503E10,8.527597E10,2.3425974E11,1.5190432E11,2.5231339E11,1.2074555E11,1.6999408E11,2.3322912E11,6.954156E10,1.964186E10,5.2658676E10,0E0,0E0,0E0,0E0,0E0,0E0,0E0,0E0,0E0,0E0,0E0,0E0,0E0,0E0,0E0,0E0,0E0,0E0,0E0,0E0,0E0,0E0,0E0,0E0,0E0,0E0,0E0,0E0,0E0,0E0,0E0,0E0],"parents":[2147483647,0,0,1,1,2,2,3,3,4,4,5,5,6,6,7,7,8,8,9,9,10,10,11,11,12,12,13,13,14,14,15,15,16,16,17,17,18,18,19,19,20,20,21,21,22,22,23,23,24,24,25,25,26,26,27,27,28,28,29,29,30,30],"right_children":[2,4,6,8,10,12,14,16,18,20,22,24,26,28,30,32,34,36,38,40,42,44,46,48,50,52,54,56,58,60,62,-1,-1,-1,-1,-1,-1,-1,-1,-1,-1,-1,-1,-1,-1,-1,-1,-1,-1,-1,-1,-1,-1,-1,-1,-1,-1,-1,-1,-1,-1,-1,-1],"split_conditions":[-4.330066E-1,7.0803266E4,4.8190188E-1,-1.0672803E0,1.12364586E5,3.6200732E-1,-1.2413515E-2,1.349492E0,3.3277543E4,-8.950798E-1,-1.7898648E0,5.320488E4,4.1836754E4,7.966541E-1,3.6200732E-1,3.8936164E4,5.12444E4,2.6339422E4,-1.7222381E0,-3.1891568E0,-7.007493E-1,1.2927293E5,1.5917602E5,7.0144005E-2,1.3548866E5,9.454631E-1,1.2927293E5,-3.3238213E0,-7.2784525E-1,2.9147812E4,1.12364586E5,3.3260712E2,6.7741943E2,8.923425E2,1.2990684E3,-2.5154622E2,4.6979164E1,1.9899412E3,3.1474304E2,9.889174E3,1.3872467E3,9.2100354E2,5.066115E2,2.1451506E3,3.1394573E3,1.6331599E3,2.5606543E3,-1.620479E2,-3.518745E2,9.942057E0,1.5243164E3,-1.3389447E2,9.90926E1,1.12837166E2,1.4682433E3,2.1405916E3,-4.67533E2,-6.410179E2,-5.3281287E2,-5.14795E2,-3.5452322E2,-1.1933467E2,1.187305E3],"split_indices":[9,6,9,9,6,8,8,8,6,9,9,6,6,9,8,6,6,6,8,8,9,6,6,9,6,8,6,8,8,6,6,0,0,0,0,0,0,0,0,0,0,0,0,0,0,0,0,0,0,0,0,0,0,0,0,0,0,0,0,0,0,0,0],"split_type":[0,0,0,0,0,0,0,0,0,0,0,0,0,0,0,0,0,0,0,0,0,0,0,0,0,0,0,0,0,0,0,0,0,0,0,0,0,0,0,0,0,0,0,0,0,0,0,0,0,0,0,0,0,0,0,0,0,0,0,0,0,0,0],"sum_hessian":[1.26317E5,4.1893E4,8.4424E4,3.6293E4,5.6E3,4.1495E4,4.2929E4,1.7741E4,1.8552E4,3.885E3,1.715E3,2.0455E4,2.104E4,3.3007E4,9.922E3,1.3549E4,4.192E3,2.488E3,1.6064E4,2.724E3,1.161E3,4.74E2,1.241E3,1.6966E4,3.489E3,1.1135E4,9.905E3,8.652E3,2.4355E4,6.578E3,3.344E3,3.094E3,1.0455E4,2.943E3,1.249E3,8.16E2,1.672E3,1.43E2,1.5921E4,3E0,2.721E3,5.35E2,6.26E2,1.12E2,3.62E2,8.97E2,3.44E2,5.733E3,1.1233E4,3.388E3,1.01E2,8.519E3,2.616E3,9.822E3,8.3E1,3E1,8.622E3,1.6343E4,8.012E3,7.87E2,5.791E3,3.317E3,2.7E1],"tree_param":{"num_deleted":"0","num_feature":"10","num_nodes":"63","size_leaf_vector":"1"}},{"base_weights":[4.7218013E0,1.8429129E4,-1.0761664E4,1.4301629E4,4.680982E4,-1.5172695E4,-2.496912E3,2.219221E4,7.6273916E3,3.7168824E4,6.934801E4,-9.742337E3,-1.8573309E4,-4.6499355E3,3.1789785E3,1.9078506E4,3.2691186E4,-3.6287067E2,9.826919E3,4.527842E4,2.1591184E4,9.408581E4,6.0234812E4,-1.0178086E4,3.349126E4,-1.9901322E4,-1.475969E4,-6.9291934E3,-1.126045E3,3.0330767E3,1.418259E5,4.3097458E2,7.421105E2,8.521582E2,1.2388329E3,-3.5834446E1,5.891128E2,1.7500591E3,2.8153452E2,1.4807766E3,5.0951215E2,8.93425E2,4.9837054E2,2.0813657E3,3.045533E3,1.5687167E3,2.4424163E3,-1.3464189E2,-3.547957E2,5.983386E2,4.0939098E4,-6.405434E2,-5.652138E2,-4.5416718E2,-2.6792712E2,-4.0662698E2,-1.8465494E2,-4.6075546E1,8.295534E2,-1.725203E1,2.3222562E2,7.923595E3,4.68767E2],"categories":[],"categories_nodes":[],"categories_segments":[],"categories_sizes":[],"default_left":[0,0,0,0,0,0,0,0,0,0,0,0,0,0,0,0,0,0,0,0,0,0,0,0,0,0,0,0,0,0,0,0,0,0,0,0,0,0,0,0,0,0,0,0,0,0,0,0,0,0,0,0,0,0,0,0,0,0,0,0,0,0,0],"id":15,"left_children":[1,3,5,7,9,11,13,15,17,19,21,23,25,27,29,31,33,35,37,39,41,43,45,47,49,51,53,55,57,59,61,-1,-1,-1,-1,-1,-1,-1,-1,-1,-1,-1,-1,-1,-1,-1,-1,-1,-1,-1,-1,-1,-1,-1,-1,-1,-1,-1,-1,-1,-1,-1,-1],"loss_changes":[2.5057177E13,5.4569447E12,2.9065688E12,2.141975E12,1.2826968E12,9.597847E11,3.3907995E11,6.086984E11,3.873171E11,5.226538E11,3.9358772E11,3.7749745E11,1.6159395E11,1.6156099E11,1.5393594E11,3.8305897E11,1.5597778E11,7.915942E10,3.703337E11,3.138042E11,5.7446367E10,8.017674E10,2.1396508E11,1.8586088E11,3.5792932E12,3.606787E10,1.812254E10,6.2554767E10,9.3233455E10,1.2950829E11,1.193413E11,0E0,0E0,0E0,0E0,0E0,0E0,0E0,0E0,0E0,0E0,0E0,0E0,0E0,0E0,0E0,0E0,0E0,0E0,0E0,0E0,0E0,0E0,0E0,0E0,0E0,0E0,0E0,0E0,0E0,0E0,0E0,0E0],"parents":[2147483647,0,0,1,1,2,2,3,3,4,4,5,5,6,6,7,7,8,8,9,9,10,10,11,11,12,12,13,13,14,14,15,15,16,16,17,17,18,18,19,19,20,20,21,21,22,22,23,23,24,24,25,25,26,26,27,27,28,28,29,29,30,30],"right_children":[2,4,6,8,10,12,14,16,18,20,22,24,26,28,30,32,34,36,38,40,42,44,46,48,50,52,54,56,58,60,62,-1,-1,-1,-1,-1,-1,-1,-1,-1,-1,-1,-1,-1,-1,-1,-1,-1,-1,-1,-1,-1,-1,-1,-1,-1,-1,-1,-1,-1,-1,-1,-1],"split_conditions":[-3.0547446E-1,7.0803266E4,1.7337039E-1,-1.0400501E0,1.12364586E5,6.478436E-1,7.480104E-1,1.349492E0,3.480109E4,-8.950798E-1,-1.7898648E0,8.108916E4,-3.755887E-1,4.245477E4,1.5917602E5,4.3659777E4,4.5374523E4,4.8774254E4,-1.7222381E0,8.108916E4,-7.007493E-1,1.2927293E5,1.5917602E5,8.4248185E-2,6.4360154E-1,3.480109E4,4.8774254E4,2.9147812E4,1.1675101E5,4.1836754E4,3.778101E-1,4.3097458E2,7.421105E2,8.521582E2,1.2388329E3,-3.5834446E1,5.891128E2,1.7500591E3,2.8153452E2,1.4807766E3,5.0951215E2,8.93425E2,4.9837054E2,2.0813657E3,3.045533E3,1.5687167E3,2.4424163E3,-1.3464189E2,-3.547957E2,5.983386E2,4.0939098E4,-6.405434E2,-5.652138E2,-4.5416718E2,-2.6792712E2,-4.0662698E2,-1.8465494E2,-4.6075546E1,8.295534E2,-1.725203E1,2.3222562E2,7.923595E3,4.68767E2],"split_indices":[9,6,8,9,6,9,8,8,6,9,9,6,8,6,6,6,6,7,8,6,9,6,6,9,9,6,7,6,6,6,9,0,0,0,0,0,0,0,0,0,0,0,0,0,0,0,0,0,0,0,0,0,0,0,0,0,0,0,0,0,0,0,0],"split_type":[0,0,0,0,0,0,0,0,0,0,0,0,0,0,0,0,0,0,0,0,0,0,0,0,0,0,0,0,0,0,0,0,0,0,0,0,0,0,0,0,0,0,0,0,0,0,0,0,0,0,0,0,0,0,0,0,0,0,0,0,0,0,0],"sum_hessian":[1.26317E5,4.6589E4,7.9728E4,4.0675E4,5.914E3,5.1983E4,2.7745E4,1.8638E4,2.2037E4,4.144E3,1.77E3,2.0019E4,3.1964E4,2.0115E4,7.63E3,1.4377E4,4.261E3,4.757E3,1.728E4,2.724E3,1.42E3,4.74E2,1.296E3,1.982E4,1.99E2,2.3705E4,8.259E3,1.2214E4,7.901E3,7.623E3,7E0,7.846E3,6.531E3,2.847E3,1.414E3,4.568E3,1.89E2,1.55E2,1.7125E4,2.38E3,3.44E2,5.35E2,8.85E2,1.12E2,3.62E2,9.45E2,3.51E2,4.453E3,1.5367E4,1.98E2,1E0,1.0007E4,1.3698E4,7.753E3,5.06E2,1.276E3,1.0938E4,7.791E3,1.1E2,4.316E3,3.307E3,3E0,4E0],"tree_param":{"num_deleted":"0","num_feature":"10","num_nodes":"63","size_leaf_vector":"1"}},{"base_weights":[5.105216E0,1.787665E4,-1.0438213E4,1.3872724E4,4.5407645E4,-1.4716762E4,-2.4216873E3,2.152662E4,7.3986865E3,3.6054574E4,6.727273E4,-9.448017E3,-1.8016168E4,-4.5104277E3,3.0847375E3,2.8711213E4,1.7094357E4,-2.625794E3,9.058262E3,4.39208E4,2.0944426E4,5.8377156E4,9.17013E4,-9.872768E3,3.269421E4,-1.9304334E4,-1.4316986E4,-6.7213647E3,-1.0921659E3,2.9421133E3,1.3862017E5,2.3682379E2,9.163536E2,3.8341476E2,6.787003E2,-1.4217915E2,2.0943901E2,1.9177998E3,2.5600226E2,9.63335E3,1.3049199E3,8.666722E2,4.834363E2,1.4712998E3,2.4186316E3,1.6599619E3,2.9154453E3,1.5410331E3,-3.0053464E2,5.804786E2,4.0325008E4,-6.1437604E2,-5.4183704E2,-4.9513275E2,-4.0056375E2,-4.0710184E2,-1.8045515E2,-4.46935E1,8.048909E2,1.3610367E1,2.8372952E2,7.7453145E3,4.5751657E2],"categories":[],"categories_nodes":[],"categories_segments":[],"categories_sizes":[],"default_left":[0,0,0,0,0,0,0,0,0,0,0,0,0,0,0,0,0,0,0,0,0,0,0,0,0,0,0,0,0,0,0,0,0,0,0,0,0,0,0,0,0,0,0,0,0,0,0,0,0,0,0,0,0,0,0,0,0,0,0,0,0,0,0],"id":16,"left_children":[1,3,5,7,9,11,13,15,17,19,21,23,25,27,29,31,33,35,37,39,41,43,45,47,49,51,53,55,57,59,61,-1,-1,-1,-1,-1,-1,-1,-1,-1,-1,-1,-1,-1,-1,-1,-1,-1,-1,-1,-1,-1,-1,-1,-1,-1,-1,-1,-1,-1,-1,-1,-1],"loss_changes":[2.3575952E13,5.135083E12,2.7345966E12,2.0154013E12,1.2072245E12,9.035055E11,3.1913433E11,5.930489E11,3.6665636E11,4.9175383E11,3.7949643E11,3.586801E11,1.5204247E11,1.5202062E11,1.471044E11,2.711953E11,2.7471616E11,6.3607103E10,5.4396453E11,3.0589793E11,5.406071E10,2.6616057E11,8.84985E10,1.7658754E11,3.474292E12,3.4251735E10,1.72129E10,5.8996163E10,8.776971E10,1.2360737E11,1.1406026E11,0E0,0E0,0E0,0E0,0E0,0E0,0E0,0E0,0E0,0E0,0E0,0E0,0E0,0E0,0E0,0E0,0E0,0E0,0E0,0E0,0E0,0E0,0E0,0E0,0E0,0E0,0E0,0E0,0E0,0E0,0E0,0E0],"parents":[2147483647,0,0,1,1,2,2,3,3,4,4,5,5,6,6,7,7,8,8,9,9,10,10,11,11,12,12,13,13,14,14,15,15,16,16,17,17,18,18,19,19,20,20,21,21,22,22,23,23,24,24,25,25,26,26,27,27,28,28,29,29,30,30],"right_children":[2,4,6,8,10,12,14,16,18,20,22,24,26,28,30,32,34,36,38,40,42,44,46,48,50,52,54,56,58,60,62,-1,-1,-1,-1,-1,-1,-1,-1,-1,-1,-1,-1,-1,-1,-1,-1,-1,-1,-1,-1,-1,-1,-1,-1,-1,-1,-1,-1,-1,-1,-1,-1],"split_conditions":[-3.0547446E-1,7.0803266E4,1.7337039E-1,-1.0400501E0,1.12364586E5,6.478436E-1,7.480104E-1,-1.566178E0,3.3277543E4,-8.950798E-1,1.145942E0,8.108916E4,-3.755887E-1,4.245477E4,1.5917602E5,2.924656E4,4.3659777E4,1.145942E0,-1.7222381E0,-3.1891568E0,-7.007493E-1,1.5917602E5,1.2927293E5,-3.3238213E0,6.4360154E-1,4.051197E4,3.480109E4,2.8628496E4,1.1675101E5,4.5374523E4,3.778101E-1,2.3682379E2,9.163536E2,3.8341476E2,6.787003E2,-1.4217915E2,2.0943901E2,1.9177998E3,2.5600226E2,9.63335E3,1.3049199E3,8.666722E2,4.834363E2,1.4712998E3,2.4186316E3,1.6599619E3,2.9154453E3,1.5410331E3,-3.0053464E2,5.804786E2,4.0325008E4,-6.1437604E2,-5.4183704E2,-4.9513275E2,-4.0056375E2,-4.0710184E2,-1.8045515E2,-4.46935E1,8.048909E2,1.3610367E1,2.8372952E2,7.7453145E3,4.5751657E2],"split_indices":[9,6,8,9,6,9,8,9,6,9,8,6,8,6,6,6,6,8,8,8,9,6,6,8,9,6,6,6,6,6,9,0,0,0,0,0,0,0,0,0,0,0,0,0,0,0,0,0,0,0,0,0,0,0,0,0,0,0,0,0,0,0,0],"split_type":[0,0,0,0,0,0,0,0,0,0,0,0,0,0,0,0,0,0,0,0,0,0,0,0,0,0,0,0,0,0,0,0,0,0,0,0,0,0,0,0,0,0,0,0,0,0,0,0,0,0,0,0,0,0,0,0,0,0,0,0,0,0,0],"sum_hessian":[1.26317E5,4.6589E4,7.9728E4,4.0675E4,5.914E3,5.1983E4,2.7745E4,1.8638E4,2.2037E4,4.144E3,1.77E3,2.0019E4,3.1964E4,2.0115E4,7.63E3,7.109E3,1.1529E4,3.13E3,1.8907E4,2.724E3,1.42E3,1.3E3,4.7E2,1.982E4,1.99E2,2.3705E4,8.259E3,1.2214E4,7.901E3,7.623E3,7E0,5.76E2,6.533E3,6.478E3,5.051E3,2.566E3,5.64E2,1.78E2,1.8729E4,3E0,2.721E3,5.35E2,8.85E2,9.18E2,3.82E2,6.3E1,4.07E2,4.6E1,1.9774E4,1.98E2,1E0,1.2179E4,1.1526E4,2.523E3,5.736E3,1.14E3,1.1074E4,7.791E3,1.1E2,5.517E3,2.106E3,3E0,4E0],"tree_param":{"num_deleted":"0","num_feature":"10","num_nodes":"63","size_leaf_vector":"1"}},{"base_weights":[5.5378833E0,1.8829273E4,-9.335316E3,1.4725026E4,4.542109E4,-3.1691763E3,-1.52952705E4,2.7850037E4,1.1527028E4,3.6618555E4,6.714296E4,2.3451736E3,-5.8184297E3,-1.726832E4,-8.73055E3,7.657713E3,2.9628904E4,1.0264051E4,2.8100322E4,5.5689938E4,3.0619986E4,5.8428965E4,9.040604E4,-5.6186685E3,4.5044727E3,-6.109497E3,3.6415113E4,-1.4395058E4,-1.8645068E4,-1.1466944E4,-3.3459563E3,-3.800744E1,5.6325055E2,1.2655736E3,8.2153E2,2.0110727E2,4.4243042E2,6.564923E2,1.01301526E3,5.1751104E3,1.5354149E3,2.489617E2,1.0323033E3,1.4541375E3,2.3853948E3,2.515102E3,4.067056E3,-3.736294E2,-8.68892E1,1.2816663E2,1.663436E3,-2.6190634E2,-7.226724E1,2.421573E2,1.8096063E3,1.8297671E3,-4.390219E2,-5.906095E2,-4.9093692E2,-4.328065E2,-3.175619E2,-1.1065564E2,1.1210255E3],"categories":[],"categories_nodes":[],"categories_segments":[],"categories_sizes":[],"default_left":[0,0,0,0,0,0,0,0,0,0,0,0,0,0,0,0,0,0,0,0,0,0,0,0,0,0,0,0,0,0,0,0,0,0,0,0,0,0,0,0,0,0,0,0,0,0,0,0,0,0,0,0,0,0,0,0,0,0,0,0,0,0,0],"id":17,"left_children":[1,3,5,7,9,11,13,15,17,19,21,23,25,27,29,31,33,35,37,39,41,43,45,47,49,51,53,55,57,59,61,-1,-1,-1,-1,-1,-1,-1,-1,-1,-1,-1,-1,-1,-1,-1,-1,-1,-1,-1,-1,-1,-1,-1,-1,-1,-1,-1,-1,-1,-1,-1,-1],"loss_changes":[2.2210643E13,4.5716173E12,3.1025623E12,1.523074E12,1.06849475E12,6.062251E11,5.559005E11,2.5515996E11,6.106031E11,4.545257E11,3.2189868E11,2.3160812E11,3.4478968E11,1.3030339E11,1.4617084E11,5.7272467E10,1.830043E11,4.3284064E11,7.20508E10,4.9317727E11,2.5656112E11,2.4325757E11,1.18582936E11,5.342788E10,1.2511969E11,2.6996684E11,1.29602126E11,1.936324E11,5.2692517E10,1.7013998E10,4.679062E10,0E0,0E0,0E0,0E0,0E0,0E0,0E0,0E0,0E0,0E0,0E0,0E0,0E0,0E0,0E0,0E0,0E0,0E0,0E0,0E0,0E0,0E0,0E0,0E0,0E0,0E0,0E0,0E0,0E0,0E0,0E0,0E0],"parents":[2147483647,0,0,1,1,2,2,3,3,4,4,5,5,6,6,7,7,8,8,9,9,10,10,11,11,12,12,13,13,14,14,15,15,16,16,17,17,18,18,19,19,20,20,21,21,22,22,23,23,24,24,25,25,26,26,27,27,28,28,29,29,30,30],"right_children":[2,4,6,8,10,12,14,16,18,20,22,24,26,28,30,32,34,36,38,40,42,44,46,48,50,52,54,56,58,60,62,-1,-1,-1,-1,-1,-1,-1,-1,-1,-1,-1,-1,-1,-1,-1,-1,-1,-1,-1,-1,-1,-1,-1,-1,-1,-1,-1,-1,-1,-1,-1,-1],"split_conditions":[-4.330066E-1,7.0803266E4,4.8190188E-1,-1.566178E0,1.1675101E5,-7.5334206E-2,-1.2413515E-2,2.924656E4,1.349492E0,-1.6742684E0,1.145942E0,3.480109E4,1.2927293E5,8.838388E-1,3.6200732E-1,1.349492E0,1E0,4.3659777E4,4.1114516E4,-1.0695012E0,-1.9538614E-1,1.5917602E5,-9.892999E-1,3.6200732E-1,1.3548866E5,3.6200732E-1,3.032822E-1,-3.3238213E0,-7.2784525E-1,3.3277543E4,1.12364586E5,-3.800744E1,5.6325055E2,1.2655736E3,8.2153E2,2.0110727E2,4.4243042E2,6.564923E2,1.01301526E3,5.1751104E3,1.5354149E3,2.489617E2,1.0323033E3,1.4541375E3,2.3853948E3,2.515102E3,4.067056E3,-3.736294E2,-8.68892E1,1.2816663E2,1.663436E3,-2.6190634E2,-7.226724E1,2.421573E2,1.8096063E3,1.8297671E3,-4.390219E2,-5.906095E2,-4.9093692E2,-4.328065E2,-3.175619E2,-1.1065564E2,1.1210255E3],"split_indices":[9,6,9,9,6,9,8,6,8,9,8,6,6,9,8,8,4,6,6,8,8,6,9,8,6,8,9,8,8,6,6,0,0,0,0,0,0,0,0,0,0,0,0,0,0,0,0,0,0,0,0,0,0,0,0,0,0,0,0,0,0,0,0],"split_type":[0,0,0,0,0,0,0,0,0,0,0,0,0,0,0,0,0,0,0,0,0,0,0,0,0,0,0,0,0,0,0,0,0,0,0,0,0,0,0,0,0,0,0,0,0,0,0,0,0,0,0,0,0,0,0,0,0,0,0,0,0,0,0],"sum_hessian":[1.26317E5,4.1893E4,8.4424E4,3.6293E4,5.6E3,4.1495E4,4.2929E4,7.109E3,2.9184E4,3.987E3,1.613E3,1.3466E4,2.8029E4,3.3007E4,9.922E3,5.76E2,6.533E3,2.7119E4,2.065E3,9.52E2,3.035E3,1.176E3,4.37E2,2.872E3,1.0594E4,2.7838E4,1.91E2,1.0696E4,2.2311E4,6.578E3,3.344E3,3.2E2,2.56E2,9.88E2,5.545E3,1.5117E4,1.2002E4,9.87E2,1.078E3,3.4E1,9.18E2,4.41E2,2.594E3,8.01E2,3.75E2,3.84E2,5.3E1,8.17E2,2.055E3,1.0547E4,4.7E1,1.6296E4,1.1542E4,8.8E1,1.03E2,3.3E1,1.0663E4,1.5309E4,7.002E3,1.506E3,5.072E3,3.317E3,2.7E1],"tree_param":{"num_deleted":"0","num_feature":"10","num_nodes":"63","size_leaf_vector":"1"}},{"base_weights":[5.585201E0,1.8264953E4,-9.055214E3,1.4283412E4,4.4061742E4,-1.7220908E3,-1.3779217E4,2.646536E4,1.1038191E4,3.5138715E4,6.4242875E4,-3.6876074E3,4.45121E3,-1.6173261E4,-7.753649E3,7.171886E3,2.8136896E4,9.877408E3,2.721804E4,5.3319953E4,2.9545371E4,8.693198E4,5.5513758E4,-5.9557627E3,1.02012103E3,-1.3060431E3,7.5155913E3,-1.1292258E4,-1.7446682E4,-8.0516973E3,3.4279887E4,-3.0121151E1,5.3459406E2,7.44389E2,1.01934924E3,1.9147475E2,4.2746918E2,5.555586E2,9.1579565E2,6.172253E3,1.4479528E3,2.5812537E2,9.930251E2,1.9216608E3,2.814416E3,6.624824E3,1.635978E3,-2.4497499E2,-9.2484665E1,1.9600334E1,1.4443035E3,-2.852134E2,5.292703E0,5.817644E2,1.9193587E2,-3.5765726E2,1.537493E3,-5.524795E2,-4.43531E2,-3.1680777E2,-1.262454E2,6.7698193E2,1.9017656E3],"categories":[],"categories_nodes":[],"categories_segments":[],"categories_sizes":[],"default_left":[0,0,0,0,0,0,0,0,0,0,0,0,0,0,0,0,0,0,0,0,0,0,0,0,0,0,0,0,0,0,0,0,0,0,0,0,0,0,0,0,0,0,0,0,0,0,0,0,0,0,0,0,0,0,0,0,0,0,0,0,0,0,0],"id":18,"left_children":[1,3,5,7,9,11,13,15,17,19,21,23,25,27,29,31,33,35,37,39,41,43,45,47,49,51,53,55,57,59,61,-1,-1,-1,-1,-1,-1,-1,-1,-1,-1,-1,-1,-1,-1,-1,-1,-1,-1,-1,-1,-1,-1,-1,-1,-1,-1,-1,-1,-1,-1,-1,-1],"loss_changes":[2.089878E13,4.302346E12,2.9246E12,1.4345227E12,1.006353E12,4.013879E11,7.405799E11,2.459933E11,5.3802172E11,3.9360764E11,3.3503786E11,2.6792424E11,1.4095509E11,2.281995E11,1.8321028E11,5.3122392E10,1.3555676E11,4.0851053E11,5.4638543E10,6.9351034E11,2.2114625E11,6.8771906E10,1.8940874E11,1.0748926E11,1.4098652E11,3.3751767E10,6.909061E10,3.001326E11,7.492914E10,1.3976017E11,3.3694163E10,0E0,0E0,0E0,0E0,0E0,0E0,0E0,0E0,0E0,0E0,0E0,0E0,0E0,0E0,0E0,0E0,0E0,0E0,0E0,0E0,0E0,0E0,0E0,0E0,0E0,0E0,0E0,0E0,0E0,0E0,0E0,0E0],"parents":[2147483647,0,0,1,1,2,2,3,3,4,4,5,5,6,6,7,7,8,8,9,9,10,10,11,11,12,12,13,13,14,14,15,15,16,16,17,17,18,18,19,19,20,20,21,21,22,22,23,23,24,24,25,25,26,26,27,27,28,28,29,29,30,30],"right_children":[2,4,6,8,10,12,14,16,18,20,22,24,26,28,30,32,34,36,38,40,42,44,46,48,50,52,54,56,58,60,62,-1,-1,-1,-1,-1,-1,-1,-1,-1,-1,-1,-1,-1,-1,-1,-1,-1,-1,-1,-1,-1,-1,-1,-1,-1,-1,-1,-1,-1,-1,-1,-1],"split_conditions":[-4.330066E-1,7.0803266E4,3.1197497E-1,-1.5326077E0,1.12364586E5,7.480104E-1,-1.2413515E-2,2.924656E4,1.349492E0,-1.6742684E0,-1.7898648E0,5.12444E4,4.0497848E4,6.478436E-1,1.12364586E5,1.349492E0,5.12444E4,4.3659777E4,4.0497848E4,-1.0695012E0,-1.9538614E-1,1.2927293E5,4.3344668E4,3.6200732E-1,1.3548866E5,2.6339422E4,1E0,8.108916E4,-5.530617E-1,3.6200732E-1,7.480104E-1,-3.0121151E1,5.3459406E2,7.44389E2,1.01934924E3,1.9147475E2,4.2746918E2,5.555586E2,9.1579565E2,6.172253E3,1.4479528E3,2.5812537E2,9.930251E2,1.9216608E3,2.814416E3,6.624824E3,1.635978E3,-2.4497499E2,-9.2484665E1,1.9600334E1,1.4443035E3,-2.852134E2,5.292703E0,5.817644E2,1.9193587E2,-3.5765726E2,1.537493E3,-5.524795E2,-4.43531E2,-3.1680777E2,-1.262454E2,6.7698193E2,1.9017656E3],"split_indices":[9,6,9,9,6,8,8,6,8,9,9,6,6,9,6,8,6,6,6,8,8,6,7,8,6,6,4,6,8,8,8,0,0,0,0,0,0,0,0,0,0,0,0,0,0,0,0,0,0,0,0,0,0,0,0,0,0,0,0,0,0,0,0],"split_type":[0,0,0,0,0,0,0,0,0,0,0,0,0,0,0,0,0,0,0,0,0,0,0,0,0,0,0,0,0,0,0,0,0,0,0,0,0,0,0,0,0,0,0,0,0,0,0,0,0,0,0,0,0,0,0,0,0,0,0,0,0,0,0],"sum_hessian":[1.26317E5,4.1893E4,8.4424E4,3.6293E4,5.6E3,3.3078E4,5.1346E4,7.633E3,2.866E4,3.885E3,1.715E3,2.509E4,7.988E3,3.6745E4,1.4601E4,6.09E2,7.024E3,2.6743E4,1.917E3,9.12E2,2.973E3,4.74E2,1.241E3,1.6932E4,8.158E3,2.775E3,5.213E3,7.605E3,2.914E4,1.4499E4,1.02E2,3.45E2,2.64E2,4.48E3,2.544E3,1.4863E4,1.188E4,5.3E2,1.387E3,2.8E1,8.84E2,4.32E2,2.541E3,1.12E2,3.62E2,6E0,1.235E3,9.569E3,7.363E3,8.096E3,6.2E1,4.24E2,2.351E3,4.47E2,4.766E3,7.53E3,7.5E1,2.1358E4,7.782E3,8.772E3,5.727E3,7.4E1,2.8E1],"tree_param":{"num_deleted":"0","num_feature":"10","num_nodes":"63","size_leaf_vector":"1"}},{"base_weights":[5.6562963E0,1.5987941E4,-9.746819E3,1.2396015E4,4.0999098E4,-1.351343E4,-2.4807124E3,1.9784514E4,6.465147E3,3.397704E4,6.5218227E4,-8.736167E3,-1.645753E4,-3.76592E3,5.409657E3,1.6956521E4,2.93202E4,-7.680005E2,8.4478955E3,4.2126734E4,1.8676676E4,8.55845E4,5.2072895E4,-1.0016339E4,3.764089E3,-1.7641002E4,-1.3058999E4,-5.435909E3,4.329385E2,5.2293687E3,1.394723E5,2.64315E2,5.882836E2,7.685044E2,1.1395768E3,-4.6035194E1,5.404594E2,2.3523164E2,9.957199E2,1.3844313E3,4.3785446E2,6.166955E2,-1.381391E2,1.0302222E3,2.6712563E3,1.0482145E3,2.0900688E3,1.6337405E3,-3.0513806E2,7.082994E1,1.1070967E4,-5.7011395E2,-4.9908972E2,-4.0277335E2,-2.2271252E2,-1.0884578E2,-2.3648067E2,-2.6729298E0,8.25239E2,-6.2934074E1,2.418865E2,-6.762166E2,5.5683193E3],"categories":[],"categories_nodes":[],"categories_segments":[],"categories_sizes":[],"default_left":[0,0,0,0,0,0,0,0,0,0,0,0,0,0,0,0,0,0,0,0,0,0,0,0,0,0,0,0,0,0,0,0,0,0,0,0,0,0,0,0,0,0,0,0,0,0,0,0,0,0,0,0,0,0,0,0,0,0,0,0,0,0,0],"id":19,"left_children":[1,3,5,7,9,11,13,15,17,19,21,23,25,27,29,31,33,35,37,39,41,43,45,47,49,51,53,55,57,59,61,-1,-1,-1,-1,-1,-1,-1,-1,-1,-1,-1,-1,-1,-1,-1,-1,-1,-1,-1,-1,-1,-1,-1,-1,-1,-1,-1,-1,-1,-1,-1,-1],"loss_changes":[1.9688946E13,4.3000466E12,2.147006E12,1.8341854E12,1.0200631E12,7.265237E11,2.7163058E11,5.0213788E11,3.330451E11,5.805336E11,3.5696725E11,3.1531847E11,1.2833522E11,1.6151082E11,8.995653E10,3.1054863E11,1.35804486E11,7.197206E10,2.7340151E11,3.3597738E11,7.108179E10,9.0487914E10,2.4566982E11,1.7907607E11,9.375243E11,3.2140952E10,1.6972906E10,7.285942E10,9.265177E10,7.7831586E10,4.1558802E10,0E0,0E0,0E0,0E0,0E0,0E0,0E0,0E0,0E0,0E0,0E0,0E0,0E0,0E0,0E0,0E0,0E0,0E0,0E0,0E0,0E0,0E0,0E0,0E0,0E0,0E0,0E0,0E0,0E0,0E0,0E0,0E0],"parents":[2147483647,0,0,1,1,2,2,3,3,4,4,5,5,6,6,7,7,8,8,9,9,10,10,11,11,12,12,13,13,14,14,15,15,16,16,17,17,18,18,19,19,20,20,21,21,22,22,23,23,24,24,25,25,26,26,27,27,28,28,29,29,30,30],"right_children":[2,4,6,8,10,12,14,16,18,20,22,24,26,28,30,32,34,36,38,40,42,44,46,48,50,52,54,56,58,60,62,-1,-1,-1,-1,-1,-1,-1,-1,-1,-1,-1,-1,-1,-1,-1,-1,-1,-1,-1,-1,-1,-1,-1,-1,-1,-1,-1,-1,-1,-1,-1,-1],"split_conditions":[-2.6900902E-1,7.0803266E4,1.7337039E-1,-1.0400501E0,1.2927293E5,6.478436E-1,9.454631E-1,1.349492E0,3.480109E4,-8.950798E-1,-1.4786607E0,7.0803266E4,-3.755887E-1,4.8147535E4,1.5917602E5,4.0497848E4,5.12444E4,4.8774254E4,1.349492E0,6.094808E4,1E0,-8.999788E-1,-9.892999E-1,-3.3238213E0,6.4360154E-1,-1.4008653E0,4.8774254E4,2.801905E-1,1.1675101E5,3.8936164E4,1E0,2.64315E2,5.882836E2,7.685044E2,1.1395768E3,-4.6035194E1,5.404594E2,2.3523164E2,9.957199E2,1.3844313E3,4.3785446E2,6.166955E2,-1.381391E2,1.0302222E3,2.6712563E3,1.0482145E3,2.0900688E3,1.6337405E3,-3.0513806E2,7.082994E1,1.1070967E4,-5.7011395E2,-4.9908972E2,-4.0277335E2,-2.2271252E2,-1.0884578E2,-2.3648067E2,-2.6729298E0,8.25239E2,-6.2934074E1,2.418865E2,-6.762166E2,5.5683193E3],"split_indices":[9,6,8,9,6,9,8,8,6,9,9,6,8,6,6,6,6,7,8,7,2,8,9,8,9,8,7,9,6,6,4,0,0,0,0,0,0,0,0,0,0,0,0,0,0,0,0,0,0,0,0,0,0,0,0,0,0,0,0,0,0,0,0],"split_type":[0,0,0,0,0,0,0,0,0,0,0,0,0,0,0,0,0,0,0,0,0,0,0,0,0,0,0,0,0,0,0,0,0,0,0,0,0,0,0,0,0,0,0,0,0,0,0,0,0,0,0,0,0,0,0,0,0,0,0,0,0,0,0],"sum_hessian":[1.26317E5,4.7869E4,7.8448E4,4.1859E4,6.01E3,5.1665E4,2.6783E4,1.8638E4,2.3221E4,4.661E3,1.349E3,1.9701E4,3.1964E4,2.3032E4,3.751E3,1.4377E4,4.261E3,4.996E3,1.8225E4,3.04E3,1.621E3,5.27E2,8.22E2,1.7871E4,1.83E3,2.3705E4,8.259E3,1.6478E4,6.554E3,3.747E3,4E0,3.533E3,1.0844E4,2.988E3,1.273E3,4.801E3,1.95E2,1.779E4,4.35E2,2.652E3,3.88E2,1.5E3,1.21E2,3.4E1,4.93E2,4.18E2,4.04E2,4.2E1,1.7829E4,1.824E3,6E0,1.0052E4,1.3653E4,7.753E3,5.06E2,9.478E3,7E3,6.431E3,1.23E2,1.045E3,2.702E3,1E0,3E0],"tree_param":{"num_deleted":"0","num_feature":"10","num_nodes":"63","size_leaf_vector":"1"}},{"base_weights":[5.723583E0,1.7200307E4,-8.5267E3,1.3453362E4,4.1477113E4,-1.6125519E3,-1.2980798E4,2.5563285E4,1.0502702E4,3.303845E4,6.056288E4,-3.472294E3,4.22853E3,-1.52341E4,-7.309464E3,6.7208584E3,2.7223297E4,9.35283E3,2.5591768E4,5.057388E4,2.7644066E4,5.2224188E4,8.26878E4,-5.627141E3,1.00025226E3,-1.2342441E3,7.136169E3,-1.0689348E4,-1.641979E4,-7.5929775E3,3.2673629E4,-4.387473E1,5.07478E2,1.1835575E3,7.51131E2,1.8160669E2,4.0522644E2,5.934457E2,9.266482E2,5.9533696E3,1.3701365E3,2.2006873E2,9.327749E2,1.2937299E3,2.1971287E3,2.3146887E3,3.6137876E3,-2.3122827E2,-8.768018E1,1.9548683E1,1.3737468E3,-2.7450882E2,5.90068E0,5.595206E2,1.8157631E2,-3.3886548E2,1.4855363E3,-5.1993115E2,-4.175077E2,-2.7594928E2,-6.672642E1,1.1552783E3,-5.890331E2],"categories":[],"categories_nodes":[],"categories_segments":[],"categories_sizes":[],"default_left":[0,0,0,0,0,0,0,0,0,0,0,0,0,0,0,0,0,0,0,0,0,0,0,0,0,0,0,0,0,0,0,0,0,0,0,0,0,0,0,0,0,0,0,0,0,0,0,0,0,0,0,0,0,0,0,0,0,0,0,0,0,0,0],"id":20,"left_children":[1,3,5,7,9,11,13,15,17,19,21,23,25,27,29,31,33,35,37,39,41,43,45,47,49,51,53,55,57,59,61,-1,-1,-1,-1,-1,-1,-1,-1,-1,-1,-1,-1,-1,-1,-1,-1,-1,-1,-1,-1,-1,-1,-1,-1,-1,-1,-1,-1,-1,-1,-1,-1],"loss_changes":[1.8532444E13,3.8102809E12,2.5999563E12,1.2965983E12,9.000882E11,3.5934873E11,6.560641E11,2.2220793E11,5.061348E11,3.6618948E11,3.122717E11,2.4182404E11,1.2690427E11,1.978364E11,1.6577279E11,4.8163766E10,1.7364576E11,3.716667E11,6.2968037E10,6.5283005E11,2.0804796E11,2.356748E11,8.848723E10,9.525205E10,1.273776E11,3.1446497E10,6.494439E10,2.7814606E11,6.622177E10,1.2494989E11,3.2196993E10,0E0,0E0,0E0,0E0,0E0,0E0,0E0,0E0,0E0,0E0,0E0,0E0,0E0,0E0,0E0,0E0,0E0,0E0,0E0,0E0,0E0,0E0,0E0,0E0,0E0,0E0,0E0,0E0,0E0,0E0,0E0,0E0],"parents":[2147483647,0,0,1,1,2,2,3,3,4,4,5,5,6,6,7,7,8,8,9,9,10,10,11,11,12,12,13,13,14,14,15,15,16,16,17,17,18,18,19,19,20,20,21,21,22,22,23,23,24,24,25,25,26,26,27,27,28,28,29,29,30,30],"right_children":[2,4,6,8,10,12,14,16,18,20,22,24,26,28,30,32,34,36,38,40,42,44,46,48,50,52,54,56,58,60,62,-1,-1,-1,-1,-1,-1,-1,-1,-1,-1,-1,-1,-1,-1,-1,-1,-1,-1,-1,-1,-1,-1,-1,-1,-1,-1,-1,-1,-1,-1,-1,-1],"split_conditions":[-4.330066E-1,7.0803266E4,3.1197497E-1,-1.566178E0,1.12364586E5,7.480104E-1,-1.2413515E-2,2.924656E4,1.349492E0,-1.6742684E0,1.145942E0,5.12444E4,4.0497848E4,6.478436E-1,1.12364586E5,1.349492E0,1E0,4.3659777E4,4.1114516E4,-1.0695012E0,-1.9538614E-1,1.5917602E5,-9.892999E-1,3.6200732E-1,1.3548866E5,2.6339422E4,1E0,8.108916E4,-5.530617E-1,5.535397E-1,1E0,-4.387473E1,5.07478E2,1.1835575E3,7.51131E2,1.8160669E2,4.0522644E2,5.934457E2,9.266482E2,5.9533696E3,1.3701365E3,2.2006873E2,9.327749E2,1.2937299E3,2.1971287E3,2.3146887E3,3.6137876E3,-2.3122827E2,-8.768018E1,1.9548683E1,1.3737468E3,-2.7450882E2,5.90068E0,5.595206E2,1.8157631E2,-3.3886548E2,1.4855363E3,-5.1993115E2,-4.175077E2,-2.7594928E2,-6.672642E1,1.1552783E3,-5.890331E2],"split_indices":[9,6,9,9,6,8,8,6,8,9,8,6,6,9,6,8,4,6,6,8,8,6,9,8,6,6,4,6,8,8,2,0,0,0,0,0,0,0,0,0,0,0,0,0,0,0,0,0,0,0,0,0,0,0,0,0,0,0,0,0,0,0,0],"split_type":[0,0,0,0,0,0,0,0,0,0,0,0,0,0,0,0,0,0,0,0,0,0,0,0,0,0,0,0,0,0,0,0,0,0,0,0,0,0,0,0,0,0,0,0,0,0,0,0,0,0,0,0,0,0,0,0,0,0,0,0,0,0,0],"sum_hessian":[1.26317E5,4.1893E4,8.4424E4,3.6293E4,5.6E3,3.3078E4,5.1346E4,7.109E3,2.9184E4,3.885E3,1.715E3,2.509E4,7.988E3,3.6745E4,1.4601E4,5.76E2,6.533E3,2.7119E4,2.065E3,9.12E2,2.973E3,1.248E3,4.67E2,1.6932E4,8.158E3,2.775E3,5.213E3,7.605E3,2.914E4,1.4499E4,1.02E2,3.2E2,2.56E2,9.88E2,5.545E3,1.5117E4,1.2002E4,9.87E2,1.078E3,2.8E1,8.84E2,4.32E2,2.541E3,8.73E2,3.75E2,4.1E2,5.7E1,9.569E3,7.363E3,8.096E3,6.2E1,4.24E2,2.351E3,4.47E2,4.766E3,7.53E3,7.5E1,2.1358E4,7.782E3,1.1161E4,3.338E3,9.2E1,1E1],"tree_param":{"num_deleted":"0","num_feature":"10","num_nodes":"63","size_leaf_vector":"1"}},{"base_weights":[5.745136E0,1.5057177E4,-9.17872E3,1.1675567E4,3.860386E4,-1.2728509E4,-2.3308765E3,1.8682941E4,6.050637E3,3.0584473E4,5.7497293E4,-8.246467E3,-1.549067E4,-3.5520713E3,5.1664883E3,2.6429691E4,1.5532681E4,-2.9718215E3,7.5300337E3,3.6460316E4,1.3435038E4,7.481002E4,4.674806E4,-8.630079E3,3.0372879E4,-1.6602047E4,-1.229917E4,-5.138873E3,4.376247E2,4.9912905E3,1.3546147E5,3.630983E2,8.7707E2,3.483048E2,6.1106287E2,-1.4585593E2,1.7988524E2,1.3997185E3,2.1298262E2,1.2086498E3,3.8904224E2,2.0503014E2,4.9986392E2,5.0888904E2,2.3628152E3,7.487154E3,1.3680399E3,1.4608208E3,-2.6304193E2,5.0642242E2,3.951531E4,-5.3871484E2,-4.683251E2,-3.7965176E2,-2.0495943E2,-2.8493634E2,-1.2463539E2,-1.7015792E0,7.822859E2,-5.9459236E1,2.3063821E2,-6.744662E2,5.4170386E3],"categories":[],"categories_nodes":[],"categories_segments":[],"categories_sizes":[],"default_left":[0,0,0,0,0,0,0,0,0,0,0,0,0,0,0,0,0,0,0,0,0,0,0,0,0,0,0,0,0,0,0,0,0,0,0,0,0,0,0,0,0,0,0,0,0,0,0,0,0,0,0,0,0,0,0,0,0,0,0,0,0,0,0],"id":21,"left_children":[1,3,5,7,9,11,13,15,17,19,21,23,25,27,29,31,33,35,37,39,41,43,45,47,49,51,53,55,57,59,61,-1,-1,-1,-1,-1,-1,-1,-1,-1,-1,-1,-1,-1,-1,-1,-1,-1,-1,-1,-1,-1,-1,-1,-1,-1,-1,-1,-1,-1,-1,-1,-1],"loss_changes":[1.7462255E13,3.811231E12,1.9069403E12,1.6498405E12,9.0899166E11,6.3950396E11,2.4524582E11,4.5446123E11,3.099849E11,4.249501E11,3.2961934E11,2.9214494E11,1.1317386E11,1.4582084E11,8.497227E10,2.1620143E11,2.511683E11,5.5489217E10,3.3581708E11,2.822127E11,2.286995E10,1.5497403E11,2.4608847E11,1.5474059E11,3.3459405E12,3.1561613E10,1.5985017E10,7.066911E10,8.308135E10,7.049434E10,3.9680983E10,0E0,0E0,0E0,0E0,0E0,0E0,0E0,0E0,0E0,0E0,0E0,0E0,0E0,0E0,0E0,0E0,0E0,0E0,0E0,0E0,0E0,0E0,0E0,0E0,0E0,0E0,0E0,0E0,0E0,0E0,0E0,0E0],"parents":[2147483647,0,0,1,1,2,2,3,3,4,4,5,5,6,6,7,7,8,8,9,9,10,10,11,11,12,12,13,13,14,14,15,15,16,16,17,17,18,18,19,19,20,20,21,21,22,22,23,23,24,24,25,25,26,26,27,27,28,28,29,29,30,30],"right_children":[2,4,6,8,10,12,14,16,18,20,22,24,26,28,30,32,34,36,38,40,42,44,46,48,50,52,54,56,58,60,62,-1,-1,-1,-1,-1,-1,-1,-1,-1,-1,-1,-1,-1,-1,-1,-1,-1,-1,-1,-1,-1,-1,-1,-1,-1,-1,-1,-1,-1,-1,-1,-1],"split_conditions":[-2.6900902E-1,7.0803266E4,1.7337039E-1,-1.0400501E0,1.12364586E5,6.478436E-1,9.454631E-1,-1.698275E0,3.3277543E4,-7.5622016E-1,-1.4786607E0,8.108916E4,-3.755887E-1,4.8147535E4,1.5917602E5,3.480109E4,4.3659777E4,1.145942E0,-1.7222381E0,4.415097E4,1.7337039E-1,-8.999788E-1,4.3344668E4,-3.3238213E0,6.4360154E-1,3.480109E4,4.8774254E4,3.0712596E4,1.1675101E5,3.8936164E4,1E0,3.630983E2,8.7707E2,3.483048E2,6.1106287E2,-1.4585593E2,1.7988524E2,1.3997185E3,2.1298262E2,1.2086498E3,3.8904224E2,2.0503014E2,4.9986392E2,5.0888904E2,2.3628152E3,7.487154E3,1.3680399E3,1.4608208E3,-2.6304193E2,5.0642242E2,3.951531E4,-5.3871484E2,-4.683251E2,-3.7965176E2,-2.0495943E2,-2.8493634E2,-1.2463539E2,-1.7015792E0,7.822859E2,-5.9459236E1,2.3063821E2,-6.744662E2,5.4170386E3],"split_indices":[9,6,8,9,6,9,8,9,6,9,9,6,8,6,6,6,6,8,8,7,8,8,7,8,9,6,7,6,6,6,4,0,0,0,0,0,0,0,0,0,0,0,0,0,0,0,0,0,0,0,0,0,0,0,0,0,0,0,0,0,0,0,0],"split_type":[0,0,0,0,0,0,0,0,0,0,0,0,0,0,0,0,0,0,0,0,0,0,0,0,0,0,0,0,0,0,0,0,0,0,0,0,0,0,0,0,0,0,0,0,0,0,0,0,0,0,0,0,0,0,0,0,0,0,0,0,0,0,0],"sum_hessian":[1.26317E5,4.7869E4,7.8448E4,4.1859E4,6.01E3,5.1665E4,2.6783E4,1.8638E4,2.3221E4,4.221E3,1.789E3,1.9701E4,3.1964E4,2.3032E4,3.751E3,5.386E3,1.3252E4,3.271E3,1.995E4,3.143E3,1.078E3,6.83E2,1.106E3,1.9508E4,1.93E2,2.3705E4,8.259E3,1.6478E4,6.554E3,3.747E3,4E0,8.83E2,4.503E3,7.319E3,5.933E3,2.702E3,5.69E2,2.16E2,1.9734E4,2.702E3,4.41E2,3.55E2,7.23E2,4.4E1,6.39E2,5E0,1.101E3,4.6E1,1.9462E4,1.92E2,1E0,1.0007E4,1.3698E4,7.753E3,5.06E2,3.034E3,1.3444E4,6.431E3,1.23E2,1.045E3,2.702E3,1E0,3E0],"tree_param":{"num_deleted":"0","num_feature":"10","num_nodes":"63","size_leaf_vector":"1"}},{"base_weights":[6.0700264E0,1.4927055E4,-8.713074E3,1.1584968E4,3.790724E4,-1.2297602E4,-1.9969076E3,1.8122572E4,6.0551562E3,3.0400719E4,5.7017793E4,-7.9406807E3,-1.5026E4,-3.7969128E3,2.7483293E3,1.5481439E4,2.702827E4,-2.8034253E3,7.5217397E3,4.535872E4,2.3762148E4,7.553594E4,4.7906223E4,-9.136407E3,3.6288303E3,-1.6104028E4,-1.1930266E4,-5.732921E3,-8.037292E2,2.6172505E3,1.2732302E5,3.4524414E2,6.075678E2,7.0529486E2,1.0578556E3,-1.4155159E2,1.7705696E2,1.7976013E3,2.1061725E2,1.3446802E4,1.3318905E3,8.76295E2,4.021757E2,1.9895768E3,2.8743882E3,7.2999746E3,1.404349E3,1.5517908E3,-2.784141E2,6.944722E1,1.0623466E4,-5.160725E2,-4.482606E2,-4.2874966E2,-3.3322253E2,-3.64836E2,-1.5210393E2,1.8559064E2,-6.1429016E1,1.0552062E1,2.5647424E2,7.392693E3,1.973507E2],"categories":[],"categories_nodes":[],"categories_segments":[],"categories_sizes":[],"default_left":[0,0,0,0,0,0,0,0,0,0,0,0,0,0,0,0,0,0,0,0,0,0,0,0,0,0,0,0,0,0,0,0,0,0,0,0,0,0,0,0,0,0,0,0,0,0,0,0,0,0,0,0,0,0,0,0,0,0,0,0,0,0,0],"id":22,"left_children":[1,3,5,7,9,11,13,15,17,19,21,23,25,27,29,31,33,35,37,39,41,43,45,47,49,51,53,55,57,59,61,-1,-1,-1,-1,-1,-1,-1,-1,-1,-1,-1,-1,-1,-1,-1,-1,-1,-1,-1,-1,-1,-1,-1,-1,-1,-1,-1,-1,-1,-1,-1,-1],"loss_changes":[1.6433877E13,3.577755E12,1.9193943E12,1.4703977E12,8.467959E11,6.178362E11,2.3700154E11,4.3799177E11,2.8633557E11,4.2084676E11,2.776535E11,2.7698948E11,1.06484466E11,1.16564165E11,1.2427428E11,2.7231493E11,1.2263883E11,5.222273E10,4.96107E11,4.8605744E11,1.657589E11,9.606005E10,2.2818954E11,1.5957597E11,8.6310165E11,2.999976E10,1.5890907E10,5.198155E10,6.872053E10,1.02454305E11,1.1342452E11,0E0,0E0,0E0,0E0,0E0,0E0,0E0,0E0,0E0,0E0,0E0,0E0,0E0,0E0,0E0,0E0,0E0,0E0,0E0,0E0,0E0,0E0,0E0,0E0,0E0,0E0,0E0,0E0,0E0,0E0,0E0,0E0],"parents":[2147483647,0,0,1,1,2,2,3,3,4,4,5,5,6,6,7,7,8,8,9,9,10,10,11,11,12,12,13,13,14,14,15,15,16,16,17,17,18,18,19,19,20,20,21,21,22,22,23,23,24,24,25,25,26,26,27,27,28,28,29,29,30,30],"right_children":[2,4,6,8,10,12,14,16,18,20,22,24,26,28,30,32,34,36,38,40,42,44,46,48,50,52,54,56,58,60,62,-1,-1,-1,-1,-1,-1,-1,-1,-1,-1,-1,-1,-1,-1,-1,-1,-1,-1,-1,-1,-1,-1,-1,-1,-1,-1,-1,-1,-1,-1,-1,-1],"split_conditions":[-3.0547446E-1,7.0803266E4,1.7337039E-1,-1.0400501E0,1.1675101E5,6.478436E-1,7.480104E-1,1.349492E0,3.3277543E4,-1.4597222E0,-1.566178E0,7.0803266E4,-3.755887E-1,4.245477E4,1.5917602E5,4.3659777E4,5.12444E4,1.145942E0,-1.7222381E0,-3.1891568E0,-7.5622016E-1,1.5917602E5,4.3344668E4,-3.3238213E0,6.4360154E-1,4.051197E4,3.337168E4,2.8628496E4,-1.5938985E-1,4.5374523E4,3.778101E-1,3.4524414E2,6.075678E2,7.0529486E2,1.0578556E3,-1.4155159E2,1.7705696E2,1.7976013E3,2.1061725E2,1.3446802E4,1.3318905E3,8.76295E2,4.021757E2,1.9895768E3,2.8743882E3,7.2999746E3,1.404349E3,1.5517908E3,-2.784141E2,6.944722E1,1.0623466E4,-5.160725E2,-4.482606E2,-4.2874966E2,-3.3322253E2,-3.64836E2,-1.5210393E2,1.8559064E2,-6.1429016E1,1.0552062E1,2.5647424E2,7.392693E3,1.973507E2],"split_indices":[9,6,8,9,6,9,8,8,6,9,9,6,8,6,6,6,6,8,8,8,9,6,7,8,9,6,6,6,9,6,9,0,0,0,0,0,0,0,0,0,0,0,0,0,0,0,0,0,0,0,0,0,0,0,0,0,0,0,0,0,0,0,0],"split_type":[0,0,0,0,0,0,0,0,0,0,0,0,0,0,0,0,0,0,0,0,0,0,0,0,0,0,0,0,0,0,0,0,0,0,0,0,0,0,0,0,0,0,0,0,0,0,0,0,0,0,0,0,0,0,0,0,0,0,0,0,0,0,0],"sum_hessian":[1.26317E5,4.6589E4,7.9728E4,4.0675E4,5.914E3,5.1983E4,2.7745E4,1.8638E4,2.2037E4,4.248E3,1.666E3,2.0019E4,3.1964E4,2.0115E4,7.63E3,1.4377E4,4.261E3,3.13E3,1.8907E4,1.304E3,2.944E3,5.47E2,1.119E3,1.8144E4,1.875E3,2.3705E4,8.259E3,1.2214E4,7.901E3,7.623E3,7E0,7.846E3,6.531E3,2.988E3,1.273E3,2.566E3,5.64E2,1.78E2,1.8729E4,2E0,1.302E3,1.928E3,1.016E3,3.79E2,1.68E2,5E0,1.114E3,4.2E1,1.8102E4,1.869E3,6E0,1.2179E4,1.1526E4,2.13E3,6.129E3,1.14E3,1.1074E4,1.193E3,6.708E3,5.517E3,2.106E3,3E0,4E0],"tree_param":{"num_deleted":"0","num_feature":"10","num_nodes":"63","size_leaf_vector":"1"}},{"base_weights":[6.300368E0,1.57223955E4,-7.792457E3,1.2303627E4,3.7872914E4,-1.1677689E3,-1.1737326E4,2.2033738E4,9.168858E3,3.0471787E4,5.613674E4,-2.9089639E3,4.1085195E3,-1.3827786E4,-6.731082E3,9.890166E3,2.4357389E4,3.2744446E3,1.1844445E4,4.73348E4,2.5168453E4,4.8245945E4,7.721283E4,-4.8844116E3,1.0490607E3,-8.9302045E2,6.7273877E3,-1.4021983E4,2.7010885E4,-6.9812197E3,3.0222377E4,-1.7017072E2,3.697215E2,8.3185504E2,5.7442303E2,1.1389407E3,6.4379395E1,4.493036E2,1.8517172E2,1.3177865E4,1.3814597E3,1.4452739E2,8.58752E2,1.1750825E3,2.0243303E3,2.1229883E3,3.6523335E3,-2.0357109E2,-7.576087E1,2.106449E1,1.3449734E3,-2.5506937E2,1.4053106E1,5.4163245E2,1.6952264E2,-3.485207E2,-4.6900992E2,1.0454194E4,5.26918E2,-2.7482822E2,-1.1333841E2,5.815138E2,1.7001813E3],"categories":[],"categories_nodes":[],"categories_segments":[],"categories_sizes":[],"default_left":[0,0,0,0,0,0,0,0,0,0,0,0,0,0,0,0,0,0,0,0,0,0,0,0,0,0,0,0,0,0,0,0,0,0,0,0,0,0,0,0,0,0,0,0,0,0,0,0,0,0,0,0,0,0,0,0,0,0,0,0,0,0,0],"id":23,"left_children":[1,3,5,7,9,11,13,15,17,19,21,23,25,27,29,31,33,35,37,39,41,43,45,47,49,51,53,55,57,59,61,-1,-1,-1,-1,-1,-1,-1,-1,-1,-1,-1,-1,-1,-1,-1,-1,-1,-1,-1,-1,-1,-1,-1,-1,-1,-1,-1,-1,-1,-1,-1,-1],"loss_changes":[1.5482417E13,3.172062E12,2.2063098E12,1.1068244E12,7.553931E11,2.89505E11,5.5368116E11,2.492861E11,4.3290722E11,3.5545625E11,2.6469414E11,1.8525759E11,1.0242219E11,2.9640937E11,1.4430726E11,5.3931524E10,1.29824195E11,3.3548416E11,3.353629E11,4.601537E11,2.1342991E11,2.0281138E11,1.1712358E11,7.0872105E10,1.19794024E11,2.7850928E10,6.2482973E10,1.4379647E11,5.313997E11,1.0808531E11,2.90033E10,0E0,0E0,0E0,0E0,0E0,0E0,0E0,0E0,0E0,0E0,0E0,0E0,0E0,0E0,0E0,0E0,0E0,0E0,0E0,0E0,0E0,0E0,0E0,0E0,0E0,0E0,0E0,0E0,0E0,0E0,0E0,0E0],"parents":[2147483647,0,0,1,1,2,2,3,3,4,4,5,5,6,6,7,7,8,8,9,9,10,10,11,11,12,12,13,13,14,14,15,15,16,16,17,17,18,18,19,19,20,20,21,21,22,22,23,23,24,24,25,25,26,26,27,27,28,28,29,29,30,30],"right_children":[2,4,6,8,10,12,14,16,18,20,22,24,26,28,30,32,34,36,38,40,42,44,46,48,50,52,54,56,58,60,62,-1,-1,-1,-1,-1,-1,-1,-1,-1,-1,-1,-1,-1,-1,-1,-1,-1,-1,-1,-1,-1,-1,-1,-1,-1,-1,-1,-1,-1,-1,-1,-1],"split_conditions":[-4.330066E-1,7.0803266E4,2.801905E-1,-1.4597222E0,1.1675101E5,7.480104E-1,-1.2413515E-2,3.480109E4,7.480104E-1,-1.6742684E0,1.145942E0,5.12444E4,4.0497848E4,1.12364586E5,1.12364586E5,5.535397E-1,-1.698275E0,-1.7222381E0,-7.880184E-1,-3.1891568E0,-1.9538614E-1,1.5917602E5,-9.892999E-1,3.6200732E-1,1.3548866E5,2.6339422E4,1E0,8.838388E-1,3.1197497E-1,3.6200732E-1,7.480104E-1,-1.7017072E2,3.697215E2,8.3185504E2,5.7442303E2,1.1389407E3,6.4379395E1,4.493036E2,1.8517172E2,1.3177865E4,1.3814597E3,1.4452739E2,8.58752E2,1.1750825E3,2.0243303E3,2.1229883E3,3.6523335E3,-2.0357109E2,-7.576087E1,2.106449E1,1.3449734E3,-2.5506937E2,1.4053106E1,5.4163245E2,1.6952264E2,-3.485207E2,-4.6900992E2,1.0454194E4,5.26918E2,-2.7482822E2,-1.1333841E2,5.815138E2,1.7001813E3],"split_indices":[9,6,9,9,6,8,8,6,8,9,8,6,6,6,6,8,9,8,9,8,8,6,9,8,6,6,4,9,9,8,8,0,0,0,0,0,0,0,0,0,0,0,0,0,0,0,0,0,0,0,0,0,0,0,0,0,0,0,0,0,0,0,0],"split_type":[0,0,0,0,0,0,0,0,0,0,0,0,0,0,0,0,0,0,0,0,0,0,0,0,0,0,0,0,0,0,0,0,0,0,0,0,0,0,0,0,0,0,0,0,0,0,0,0,0,0,0,0,0,0,0,0,0,0,0,0,0,0,0],"sum_hessian":[1.26317E5,4.1893E4,8.4424E4,3.6293E4,5.6E3,3.151E4,5.2914E4,8.842E3,2.7451E4,3.987E3,1.613E3,2.3692E4,7.818E3,3.7326E4,1.5588E4,1.421E3,7.421E3,8.571E3,1.888E4,9.52E2,3.035E3,1.176E3,4.37E2,1.5804E4,7.888E3,2.687E3,5.131E3,3.715E4,1.76E2,1.5484E4,1.04E2,1.92E2,1.229E3,4.503E3,2.918E3,2.69E2,8.302E3,1.2162E4,6.718E3,2E0,9.5E2,4.41E2,2.594E3,8.01E2,3.75E2,3.84E2,5.3E1,8.75E3,7.054E3,7.827E3,6.1E1,4.07E2,2.28E3,4.44E2,4.687E3,1.4911E4,2.2239E4,4E0,1.72E2,9.213E3,6.271E3,7.5E1,2.9E1],"tree_param":{"num_deleted":"0","num_feature":"10","num_nodes":"63","size_leaf_vector":"1"}},{"base_weights":[6.4405413E0,1.3757707E4,-8.384656E3,1.0668697E4,3.5266973E4,-1.1626619E4,-2.1306357E3,1.7071686E4,5.528917E3,2.919276E4,5.6217137E4,-7.528232E3,-1.4152345E4,-3.2708074E3,4.8692847E3,1.4545243E4,2.5590717E4,-1.0448004E3,7.330922E3,4.1526043E4,2.0932164E4,4.6400465E4,7.876837E4,-7.8897847E3,2.8868988E4,-1.5386374E4,-1.1666083E4,-4.742758E3,4.301145E2,4.7034814E3,1.2818169E5,2.154797E2,5.082932E2,6.5770795E2,9.8860547E2,-5.348401E1,5.1124582E2,2.0269907E2,9.224363E2,1.2914309E4,1.2263644E3,8.078091E2,3.7542722E2,1.034087E3,1.9035726E3,2.1698865E3,3.6726562E3,-2.6874048E2,-3.7169605E1,4.6894745E2,3.875533E4,-4.254818E2,-4.9076254E2,-3.7104504E2,-2.701517E2,-2.6627426E2,-1.1428299E2,-1.1228204E0,7.403548E2,-5.6262173E1,2.1742865E2,-7.833641E2,5.1984956E3],"categories":[],"categories_nodes":[],"categories_segments":[],"categories_sizes":[],"default_left":[0,0,0,0,0,0,0,0,0,0,0,0,0,0,0,0,0,0,0,0,0,0,0,0,0,0,0,0,0,0,0,0,0,0,0,0,0,0,0,0,0,0,0,0,0,0,0,0,0,0,0,0,0,0,0,0,0,0,0,0,0,0,0],"id":24,"left_children":[1,3,5,7,9,11,13,15,17,19,21,23,25,27,29,31,33,35,37,39,41,43,45,47,49,51,53,55,57,59,61,-1,-1,-1,-1,-1,-1,-1,-1,-1,-1,-1,-1,-1,-1,-1,-1,-1,-1,-1,-1,-1,-1,-1,-1,-1,-1,-1,-1,-1,-1,-1,-1],"loss_changes":[1.4575722E13,3.1802188E12,1.5905524E12,1.3775164E12,7.632931E11,5.3470875E11,2.1378202E11,4.0079144E11,2.7509254E11,4.740966E11,2.9520534E11,2.5949648E11,9.789348E10,1.2547603E11,7.610905E10,2.5371476E11,1.1435272E11,6.672888E10,2.4489597E11,4.5290645E11,1.4065887E11,1.8966145E11,1.0582465E11,1.3859252E11,3.223199E12,2.4766317E10,1.9705364E10,6.3533548E10,7.4315825E10,6.2746165E10,3.9319208E10,0E0,0E0,0E0,0E0,0E0,0E0,0E0,0E0,0E0,0E0,0E0,0E0,0E0,0E0,0E0,0E0,0E0,0E0,0E0,0E0,0E0,0E0,0E0,0E0,0E0,0E0,0E0,0E0,0E0,0E0,0E0,0E0],"parents":[2147483647,0,0,1,1,2,2,3,3,4,4,5,5,6,6,7,7,8,8,9,9,10,10,11,11,12,12,13,13,14,14,15,15,16,16,17,17,18,18,19,19,20,20,21,21,22,22,23,23,24,24,25,25,26,26,27,27,28,28,29,29,30,30],"right_children":[2,4,6,8,10,12,14,16,18,20,22,24,26,28,30,32,34,36,38,40,42,44,46,48,50,52,54,56,58,60,62,-1,-1,-1,-1,-1,-1,-1,-1,-1,-1,-1,-1,-1,-1,-1,-1,-1,-1,-1,-1,-1,-1,-1,-1,-1,-1,-1,-1,-1,-1,-1,-1],"split_conditions":[-2.6900902E-1,7.0803266E4,1.7337039E-1,-1.0400501E0,1.2927293E5,6.478436E-1,9.454631E-1,1.349492E0,3.480109E4,-1.2691215E0,1.145942E0,8.108916E4,-5.530617E-1,4.8147535E4,1.5917602E5,4.0497848E4,4.5374523E4,4.8774254E4,1.349492E0,-3.1891568E0,-7.5622016E-1,1.5917602E5,-9.892999E-1,5.320488E4,6.4360154E-1,1.2024196E0,4.5374523E4,3.0712596E4,1.1675101E5,3.8936164E4,1E0,2.154797E2,5.082932E2,6.5770795E2,9.8860547E2,-5.348401E1,5.1124582E2,2.0269907E2,9.224363E2,1.2914309E4,1.2263644E3,8.078091E2,3.7542722E2,1.034087E3,1.9035726E3,2.1698865E3,3.6726562E3,-2.6874048E2,-3.7169605E1,4.6894745E2,3.875533E4,-4.254818E2,-4.9076254E2,-3.7104504E2,-2.701517E2,-2.6627426E2,-1.1428299E2,-1.1228204E0,7.403548E2,-5.6262173E1,2.1742865E2,-7.833641E2,5.1984956E3],"split_indices":[9,6,8,9,6,9,8,8,6,9,8,6,8,6,6,6,6,7,8,8,9,6,9,6,9,9,6,6,6,6,4,0,0,0,0,0,0,0,0,0,0,0,0,0,0,0,0,0,0,0,0,0,0,0,0,0,0,0,0,0,0,0,0],"split_type":[0,0,0,0,0,0,0,0,0,0,0,0,0,0,0,0,0,0,0,0,0,0,0,0,0,0,0,0,0,0,0,0,0,0,0,0,0,0,0,0,0,0,0,0,0,0,0,0,0,0,0,0,0,0,0,0,0,0,0,0,0,0,0],"sum_hessian":[1.26317E5,4.7869E4,7.8448E4,4.1859E4,6.01E3,5.1665E4,2.6783E4,1.8638E4,2.3221E4,4.661E3,1.349E3,1.9701E4,3.1964E4,2.3032E4,3.751E3,1.4377E4,4.261E3,4.996E3,1.8225E4,1.868E3,2.793E3,9.42E2,4.07E2,1.9508E4,1.93E2,2.1358E4,1.0606E4,1.6478E4,6.554E3,3.747E3,4E0,3.533E3,1.0844E4,2.847E3,1.414E3,4.801E3,1.95E2,1.779E4,4.35E2,2E0,1.866E3,1.63E3,1.163E3,5.56E2,3.86E2,3.57E2,5E1,1.6808E4,2.7E3,1.92E2,1E0,9.551E3,1.1807E4,8.389E3,2.217E3,3.034E3,1.3444E4,6.431E3,1.23E2,1.045E3,2.702E3,1E0,3E0],"tree_param":{"num_deleted":"0","num_feature":"10","num_nodes":"63","size_leaf_vector":"1"}},{"base_weights":[6.803905E0,1.2402324E4,-8.760715E3,9.567912E3,3.2947625E4,-1.216794E4,-4.0158765E3,1.655966E4,4.8028667E3,4.0276598E4,1.5013142E4,-8.0722773E3,-1.4124351E4,-5.967077E3,-2.0769049E2,2.3716678E4,1.36492705E4,-3.685517E3,6.235831E3,3.2432887E4,5.6324418E4,1.1920027E4,2.894277E4,-8.495927E3,3.1962736E4,-1.6014329E4,-1.3128275E4,-7.526735E3,-2.4342373E3,-2.9671538E3,3.3341372E3,3.18067E2,7.885615E2,3.008401E2,5.434216E2,-3.9729706E2,-5.7076813E1,1.7250133E2,8.7968805E2,1.0883296E3,2.8504666E2,1.1692146E3,1.9937428E3,8.4828033E2,3.1498273E2,-4.2475775E2,1.0456517E3,1.4655591E3,-2.6011935E2,4.389572E2,3.8173996E4,-4.858662E2,-2.9638937E2,-4.3925253E2,-3.5819424E2,-1.5578915E2,-2.6826953E2,-8.217508E1,5.3486835E2,-2.9626196E2,-6.619165E1,9.324676E1,2.6772495E3],"categories":[],"categories_nodes":[],"categories_segments":[],"categories_sizes":[],"default_left":[0,0,0,0,0,0,0,0,0,0,0,0,0,0,0,0,0,0,0,0,0,0,0,0,0,0,0,0,0,0,0,0,0,0,0,0,0,0,0,0,0,0,0,0,0,0,0,0,0,0,0,0,0,0,0,0,0,0,0,0,0,0,0],"id":25,"left_children":[1,3,5,7,9,11,13,15,17,19,21,23,25,27,29,31,33,35,37,39,41,43,45,47,49,51,53,55,57,59,61,-1,-1,-1,-1,-1,-1,-1,-1,-1,-1,-1,-1,-1,-1,-1,-1,-1,-1,-1,-1,-1,-1,-1,-1,-1,-1,-1,-1,-1,-1,-1,-1],"loss_changes":[1.372809E13,3.0471776E12,1.1960797E12,1.5320901E12,8.332588E11,3.4494113E11,2.2978816E11,3.879212E11,3.3270825E11,5.6498586E11,7.901928E10,2.3641686E11,5.464916E10,1.1265055E11,1.0241709E11,1.811942E11,2.140951E11,6.7303772E10,2.6228294E11,2.6653255E11,2.571035E11,3.4765275E10,8.560597E10,1.3847593E11,3.1202293E12,1.1015815E10,3.4160771E10,4.6815707E10,3.8753448E10,3.0933426E10,8.878375E10,0E0,0E0,0E0,0E0,0E0,0E0,0E0,0E0,0E0,0E0,0E0,0E0,0E0,0E0,0E0,0E0,0E0,0E0,0E0,0E0,0E0,0E0,0E0,0E0,0E0,0E0,0E0,0E0,0E0,0E0,0E0,0E0],"parents":[2147483647,0,0,1,1,2,2,3,3,4,4,5,5,6,6,7,7,8,8,9,9,10,10,11,11,12,12,13,13,14,14,15,15,16,16,17,17,18,18,19,19,20,20,21,21,22,22,23,23,24,24,25,25,26,26,27,27,28,28,29,29,30,30],"right_children":[2,4,6,8,10,12,14,16,18,20,22,24,26,28,30,32,34,36,38,40,42,44,46,48,50,52,54,56,58,60,62,-1,-1,-1,-1,-1,-1,-1,-1,-1,-1,-1,-1,-1,-1,-1,-1,-1,-1,-1,-1,-1,-1,-1,-1,-1,-1,-1,-1,-1,-1,-1,-1],"split_conditions":[-1.3466482E-1,7.0803266E4,-1.2413515E-2,-1.0400501E0,-7.880184E-1,6.478436E-1,5.535397E-1,-1.698275E0,3.3277543E4,1.12364586E5,1.1675101E5,8.108916E4,-1.4008653E0,4.5374523E4,4.1836754E4,3.480109E4,4.3659777E4,1.7337039E-1,1.349492E0,4.415097E4,7.480104E-1,-7.5622016E-1,-1.9538614E-1,-3.3238213E0,6.4360154E-1,4.415097E4,3.8936164E4,2.801905E-1,1.2326124E5,2.651116E4,1.5917602E5,3.18067E2,7.885615E2,3.008401E2,5.434216E2,-3.9729706E2,-5.7076813E1,1.7250133E2,8.7968805E2,1.0883296E3,2.8504666E2,1.1692146E3,1.9937428E3,8.4828033E2,3.1498273E2,-4.2475775E2,1.0456517E3,1.4655591E3,-2.6011935E2,4.389572E2,3.8173996E4,-4.858662E2,-2.9638937E2,-4.3925253E2,-3.5819424E2,-1.5578915E2,-2.6826953E2,-8.217508E1,5.3486835E2,-2.9626196E2,-6.619165E1,9.324676E1,2.6772495E3],"split_indices":[9,6,8,9,9,9,8,9,6,6,6,6,8,6,6,6,6,8,8,7,8,9,8,8,9,7,6,9,6,6,6,0,0,0,0,0,0,0,0,0,0,0,0,0,0,0,0,0,0,0,0,0,0,0,0,0,0,0,0,0,0,0,0],"split_type":[0,0,0,0,0,0,0,0,0,0,0,0,0,0,0,0,0,0,0,0,0,0,0,0,0,0,0,0,0,0,0,0,0,0,0,0,0,0,0,0,0,0,0,0,0,0,0,0,0,0,0,0,0,0,0,0,0,0,0,0,0,0,0],"sum_hessian":[1.26317E5,5.2331E4,7.3986E4,4.5988E4,6.343E3,4.3062E4,3.0924E4,1.8638E4,2.735E4,4.502E3,1.841E3,1.3922E4,2.914E4,2.0447E4,1.0477E4,5.386E3,1.3252E4,3.95E3,2.34E4,3.026E3,1.476E3,1.508E3,3.33E2,1.3777E4,1.45E2,1.0052E4,1.9088E4,1.4184E4,6.263E3,5.889E3,4.588E3,8.83E2,4.503E3,7.319E3,5.933E3,6.2E2,3.33E3,2.2919E4,4.81E2,2.591E3,4.35E2,5.46E2,9.3E2,1.19E2,1.389E3,4E1,2.93E2,4.1E1,1.3736E4,1.44E2,1E0,9.762E3,2.9E2,8.391E3,1.0697E4,5.357E3,8.827E3,6.171E3,9.2E1,5.83E2,5.306E3,4.577E3,1.1E1],"tree_param":{"num_deleted":"0","num_feature":"10","num_nodes":"63","size_leaf_vector":"1"}},{"base_weights":[6.992358E0,1.4377459E4,-7.1240273E3,1.1259454E4,3.4579293E4,-1.0428568E3,-1.0745243E4,9.26424E3,2.45557E4,2.7788273E4,5.1337664E4,-2.6542014E3,3.839945E3,-1.2639794E4,-6.2081567E3,1.36316045E4,5.6092764E3,